// the only difference between this and the regular model, is that we've set
// eigenvector 9 and 11 to not be regularized. This is to better detect motion of the eyebrows
var pModel = {
  "patchModel": {
    "patchType": "SVM","bias": {
      "raw": [
        -0.8002361547814905,-0.8000030412303353,-0.7998901489869329,-0.8000747538984252,-0.800158231034339,-0.7998394574700974,-0.7998022574613239,-0.7999936628080071,-0.7998726782310851,-0.7997262975413425,-0.7999045120503981,-0.7998180509918618,-0.7999571451788297,-0.7997030917703454,-0.7997435824179225,-0.7998538740935509,-0.8002773060630834,-0.7998406207823533,-0.8004090485489775,-0.7999064373504853,-0.7997268611848084,-0.7998600525400376,-0.8002469122723898,-0.7999174233167935,-0.7999903081112882,-0.8000291582988575,-0.800252158336891,-0.7996475756105523,-0.7997056123454954,-0.7996585225838099,-0.7994647873603744,-0.7996699775567591,-0.8001897105334549,-0.800082769380319,-0.7998477479136942,-0.799903551287998,-0.7997016512104831,-0.8001699897877331,-0.7998561988555679,-0.7999964040406911,-0.8000724119030201,-0.8002131075039901,-0.8001405624714504,-0.8001202494180323,-0.8000389976223812,-0.800142199627537,-0.7999889526394891,-0.7997604343766668,-0.8002994501463856,-0.800300068636801,-0.7999282798654793,-0.8003630761536225,-0.7999716928458708,-0.7999694811750793,-0.7997067008639518,-0.8000102513659064,-0.7998022644932542,-0.7997408796931167,-0.7999093868259921,-0.7998860091472754,-0.8004904484105949,-0.7997679798290616,-0.7999451101655425,-0.7998964334797543,-0.8001342202392219,-0.7999706992052585,-0.7996771072101272,-0.7998087609968724,-0.8000256256417686,-0.7999253347768812
      ]
    },"patchSize": [
      11,11
    ],"numPatches": 70,"weights": {
      "raw": [
        [
          -0.0002901745822448121,-0.0005029650660789906,0.001208537223808856,-0.0008676011228713615,0.00037527224987913416,0.0005433774852244277,-0.0018616693916526095,0.001920037445720845,-0.0014544790437326614,0.001064646863334762,-0.0003936581181535994,0.0005142781361342705,0.0008837106024526253,-0.0019733995307894756,0.0014870779302514903,-0.001656226844944285,0.0017549009922409181,-0.0008735979942914238,0.0002039996885058147,-0.00012112162158864001,-0.0002942252524295516,-4.363092254334837e-05,-0.00013919475820271116,-0.0007325504483301909,0.001005149312458875,7.295939202880963e-05,0.0001325669403827029,-0.00036186516425282256,-2.81528844691889e-05,0.00014619179039015995,0.00010982060496148027,0.0006907356584708486,-0.00036386791498595715,0.0005019037048197561,-0.0013344050178999978,0.0013691899537020408,-0.0012042142660191602,0.0010266096000043495,-0.0011032815257268277,0.0006601758887503917,-0.0003222354287950799,0.000560460247469273,-0.0011744109154812436,0.0006349390501580905,-0.0006107456763812247,0.0018585469972549201,-0.0016264385274211979,0.0004995297862507853,0.00025471755141104335,-0.0008628193315946622,0.0011409102740063404,-0.00020778532929990184,-0.0005350720907512305,0.00033848466612094313,-0.0004381557378877257,0.0003440543804542201,-0.0012057048246388175,0.002306963175015053,-0.0021493584637403834,0.0013152017502770924,-0.0006092915138759675,0.0003012428443759582,-0.0003165176278247875,-0.0001993540268259153,0.0005752907179332814,1.678128755851563e-05,-0.0003808038087063925,0.0011573786938796904,-0.0027287399874710294,0.0023882365016929807,-0.0007951187799042359,-0.0001772394037509034,-0.0005483569819707546,0.0003464838559853467,0.0004103243447261609,-0.0005187543285095422,1.723016579946446e-05,0.000585233977966837,-0.0021627394969499364,0.003085732313764758,-0.0019404155673708595,0.0005538680521009615,0.0005650089729994368,0.00028729812080520445,-0.0007841652636677021,0.0009516231959304719,-0.00025089544890042476,-0.00010101056710046241,-0.0008301161022399861,0.002477824762833536,-0.003382543807357724,0.002686251564594011,-0.0026797086620887756,0.00161035881861539,-0.001085603695738846,0.00022380351471687487,-0.00039263857209399095,-6.198027057477407e-05,0.0003455224175067245,0.0005161234551073202,-0.0016265940381387373,0.0014102212296504685,-0.0005436398776721835,0.0006072821312028964,-0.0005498437570791437,1.7016409077121042e-05,0.00036832354015756824,-0.0008325926608103683,0.0007174634224441298,8.941667071609045e-05,0.00021544484195895608,0.0001011296011973889,0.00023777833572620477,-0.0010994576085033708,0.0013212173603869698,-0.0004563464826035715,0.00013209514946600776,0.000743572599210162,-0.0005467412997372141,0.00015229881748302847,-0.0001831910940458554
        ],[
          0.000937542836542179,-0.001995639094226746,0.0021414444468880784,-0.0019141246206768347,0.0015168230127580544,-0.0021937233760687845,0.002116100706479949,-0.0020254384673971584,0.002854707692443151,-0.002977765280786428,0.0013661098262379876,-0.000484768199320917,0.000683645482980543,-0.0006664347309565136,7.953800825537824e-06,0.0004769573226197142,0.0009248244358621646,-0.0008930392545179765,0.0004999269941069584,-0.001127566832612633,0.002155619738912851,-0.001607164191492808,0.00012655819962286569,-0.00044551106359016416,-0.00024140321785213624,0.001617767041716318,-0.001887667337863431,0.0012334992858689803,-0.0017967431735296706,0.001957260064473589,-0.001396379079704951,-0.0002223724245931924,0.0006672290216063938,-0.0008522954054440651,0.0023597058072858034,-0.001489980483236704,1.9388884138681495e-05,-0.00038297022761255234,0.0009275297791275648,-5.6459643465848444e-05,-0.0005635531214694656,0.0012651304054408603,-0.0005878176463307344,0.0003493250776842422,0.0003456014739267423,-0.0007841145403564064,0.00024705440903220136,0.00042260662008203483,0.0013030936725114746,-0.0019309029137761107,0.0010915673859942649,-0.0008088615997010896,-0.0002839600949905767,0.0002589686943159058,-0.0001785064485309894,0.0005294716663220476,-0.0004615785062129907,0.0007157365887715714,-0.0016699423006858987,0.0009606780057034115,-0.000634129037751706,-0.000504714794306778,0.0013795662281903096,-0.0009558779378403234,0.0014329082080623704,-0.0010455633819398667,0.0002860851806208845,-0.0018081579304547362,0.0023567867956482973,-0.0011275917396799137,-8.900151646684326e-05,0.00018355733613362375,0.001122608851211566,-0.0023327959716221295,0.001683722944744009,-0.001157887649758938,0.0006741804466606481,-0.00023844296033724913,0.0010947867510663943,-0.0017748507116652568,0.0005136502942762514,0.0006840364930444619,-0.0009837059651344857,0.0007225550668317191,-0.00028887576629498804,0.0009229601714827484,-0.000766115821361987,-0.00011408709995208407,-0.0006746258707424128,0.000804780818285868,-6.513015428322535e-05,0.0004151321943696238,-0.00012056191098006757,-0.00036624438110673173,0.0006394653940798181,-0.0004800420822960133,3.823507712221244e-08,-5.1082994434406385e-05,0.0006941149648651455,0.0007875603396768061,-0.0007117988282983209,0.0002725458994899321,-0.00024533114363994683,-0.0005310335730952009,0.001428707190606212,-0.0011395132300273734,0.000945947017848281,-0.00031772802356566047,2.3566663008012462e-05,-0.0004085897363756369,-5.645916646692989e-05,-0.00018752240650709955,0.000914372704024881,-0.0014153916959959798,0.0019357373301927844,-0.002363096051765674,0.001790886814891879,-0.0014526109815558596,0.0004814584764135457,-0.0001819957804583079,0.0004008926502074449
        ],[
          0.0002549493209435764,-0.00016805755160619051,-7.298466900019585e-05,-0.00013843412725624135,0.0006252287393679395,-0.0010260813615062575,0.0005466099559774875,-0.00014997505189513478,-2.7711710065981415e-07,2.0312594548289485e-05,5.683961979611888e-06,-0.00019429853240310584,0.00025878406572691845,0.00024298625506707222,-0.0004109615201314115,0.00018181156545255244,-1.9314578711842213e-05,0.00040280346163205536,-0.000918485798255171,6.480913289851672e-05,0.0005486148132047132,-0.0002864808398049237,-0.00016067037518228706,0.00042102934892689764,-0.0008206892033416134,0.0013121863341261598,-0.0012092395514335765,0.0006308503017929717,-0.00026510027141252786,-7.249235070581927e-05,0.0014694223820116313,-0.0017778353277535291,0.0013757477607515543,3.127392803019616e-05,0.0002182001364476674,-0.0004830945732065546,0.0006394953636530186,-0.000680754873736203,0.0008230459639599624,-0.0005784747359092086,0.0008427161505147102,-0.0012977197417604483,0.0013174112536378047,-0.0008919488379064337,0.0005693234533419135,-0.0012572993360947236,0.0008977205184750501,-0.00038511217742986394,-0.0001310505113182813,0.0018362940843217285,-0.0025011536182325995,0.0011083418504357588,-0.00026913624628304605,-0.0001815369267402716,0.00043727916402418817,-4.864710704455396e-05,-0.000323571685571262,0.001468410106429537,-0.001874417169864661,0.001789012997347651,-0.00314920046962784,0.0029520876994656754,-0.001332453559267444,0.00019930525294518573,0.0001215645644803378,-0.0002888985066424542,-0.00017408754692828919,0.0007019451466236245,-0.0016417553597847848,0.0017443078658232873,-0.0011992094694195938,0.0020409978859280346,-0.0019572714979919706,0.0009284431524760413,-3.8870097461958736e-05,-4.963889290056432e-05,-0.00015111326127608283,0.000240707650408093,-0.0007308015560811619,0.0018783201109804693,-0.0026337970797937044,0.0024546641403296173,-0.0028253661221784338,0.002136958620413617,-0.000828632300315626,-5.1300903148791e-05,0.00036386374843662384,-0.00024410253925877365,0.0001855597772192196,-0.0002229520714030263,-0.0007798762958768895,0.0006707200537526149,-0.00028248210065890647,0.0009703585271553094,-0.0008449515007353463,-2.3471284039567426e-05,0.000444970654494173,-0.0003901966670631818,0.0001563913088338208,-0.0005889362413894093,0.0007835390055259553,-0.00013938239954524364,0.00021919564792900834,0.0001507207402084757,-0.00029894427485952857,-0.00032361159266882647,0.0017270223683517351,-0.00275204868084095,0.0023879830669531537,-0.0005703562204448832,0.000568810940367051,-0.0009471077064934215,0.0005563344425648874,6.756786560525255e-05,-0.0009465580843262787,0.0011359225038950378,-0.0008326573175191599,3.421558444054759e-05,0.001273829079383944,-0.0016488314839668184,0.00042499058777792256
        ],[
          0.0002466145313481244,-0.0009466703374562541,0.0011048369920790765,-0.0010684288904737015,0.0009732207187831089,-0.0013363689022683877,0.0008218900366996906,-9.07406468552141e-05,-0.00033320720205325116,0.00040324016586375244,0.00023208539162029862,-0.00033046876985322327,0.0008950729554295864,-0.0004151518247618967,-4.387191273368812e-05,0.00019509308262264172,0.0001701779513518624,0.000363823515002519,-0.000980497565708116,0.0010887941474010954,-0.0008590009741963472,0.00011351874181751709,0.00016959737735771155,0.00016277430491747416,-0.00041761286567752395,7.87515554998737e-05,1.933528490323782e-05,0.0003349798721830194,-0.0006041698946746138,0.001006765464786577,-0.0011061339951979748,0.00045756328006399394,4.0974760824097345e-05,-0.00013169298157197223,0.00030865158780829516,-0.00020509630028296005,0.0004911870470672743,-0.000549921638576277,3.243525887504893e-05,0.00012462805741451227,-0.0006721606371904026,0.0009495072666358961,-0.00044722841969205285,9.997894069464774e-05,-3.538470287089285e-05,7.499203939754367e-05,0.00037807380396624735,-0.0005110139856077806,0.0008419572091672746,-0.001426889532504961,0.0012562412189444025,-0.0007173728728313844,0.0001406881329901466,-0.00019712909761095132,-0.00028401417037364485,0.00025426133013182334,-0.0008108583161373084,0.0003563377706628443,-0.00015704845164415948,-0.0003450223584694975,0.0007921246409553807,-0.00067475244221607,0.00047812626068767516,-0.0006513208212229199,0.0005215992985121015,3.279387743798656e-05,-0.0003149158823596218,0.0003447790715737989,0.0001308647338692029,-0.0005574266097848751,0.0005216692449990512,-0.0005169767650635704,0.0005505382058143132,-0.0002853482141690414,4.154522111136927e-05,0.000546790297975358,-0.0005631877266909502,-9.068643044676805e-05,0.000712624545673099,-0.000886296928984745,0.0011287951948162067,-0.0010117802135699225,0.0008864593275186711,-4.9137260311846176e-05,-0.00026480712460040523,0.00041617954088353504,-0.000861305918862576,0.00047003536476680763,0.00029443266899960296,-0.0013452518098665892,0.0014818100827226205,-0.001728091590283011,0.0020002869718295097,-0.0012185480458079267,1.2932918118588321e-06,0.0005373813085714288,-0.000827729265283142,0.0007974915319722553,-0.00022681302996557795,-0.0005046885419157515,0.0011174931741733327,-0.0009416220072170634,0.0006974570383246406,-0.0009022516478529932,0.0003897327900908229,0.0003305767575048982,-0.0006002375204400764,0.0009254892549133004,-0.0007181610629628382,0.00016572205913001348,0.0003646582455677991,-0.0004404342649823173,0.00029453342996893506,0.00015621496709788962,6.0250671473138784e-05,2.082908685984569e-05,-0.0004618052831485628,0.0007204747293336616,-0.0009456109407338376,0.0005137534578190939,4.789604050162155e-05
        ],[
          -0.00032019171319048155,0.00031098097696722043,-0.00031387149624195667,0.0005216346069929077,-0.00045039770698271234,0.0006721724686805557,-0.0010226201617702683,0.000956744533508498,-0.00019098933565611697,-0.0007026673573164734,0.0008773773811612813,0.0007219033630789106,-0.0011707797155326087,0.0009913576847858084,-0.0009395818145773198,0.000735933277242585,-0.0006528878219341934,0.0006684793534727496,4.48857540148133e-05,-0.0008525988256929407,0.001068560664202784,-0.000628171111554872,-0.0007772644571202394,0.0013261913664586174,-0.0008532868360784191,0.0006363671783944278,-0.0009625775415738084,0.0006932923435003526,-0.0005057773344468702,-0.00018272341245329426,0.000513227164295477,-0.0005798538248136275,0.0003572736795003765,0.0004813148462781496,-0.0012189581629761448,0.0008380539831122254,-0.00037998444908365426,0.0010123711893451528,-0.0012159236743735004,0.0005976370311630932,-6.128456562958765e-05,2.494229828113191e-05,0.00014423713380501998,-0.0001644969876963419,-0.000514342987508163,0.0016637729695756706,-0.0013528382165846255,0.0009600987423898761,-0.0009888331135328773,0.0013934231007931234,-0.0009607895640621083,4.685763014793598e-05,0.0003067548401451849,-0.0005111383013278261,0.00044218399775312455,0.0007220475799601918,-0.0013207636525536205,0.0011182063894103283,-0.0010809930275346982,0.00112862019542784,-0.0012408365696564049,0.0006239613082618511,-0.00012373707040701752,-0.00024437929738687974,0.00017008530284362078,-0.00029545156848768007,-0.0006208003483820072,0.001239210438581881,-0.00120076556498042,0.0014334692511631894,-0.0016416315639405346,0.0013628973783327107,-0.0010317067102523485,0.000588171983144219,-0.0006995000334573936,0.0007339513930487728,-0.0004030547916881967,0.0005038813206756604,-0.0010529610652231826,0.0010371783350456398,-0.0012876109139002543,0.0013028752881817018,-0.0007881017658739912,0.00035948360234555263,-9.955493456328957e-05,0.0006697774186217929,-0.0007383565408134577,0.00033466811426753054,-0.00036844858750045405,0.0002899374338517415,0.0001267490210119229,0.00013689935585697952,-0.0002839980175122227,-0.0001814962943589315,0.0005551963669855474,-0.0008670083178396017,0.00021112733671003288,0.00033669714076637203,-0.0003296577723748747,5.8941998031413444e-05,0.00022930960449187672,-0.0006495136694131443,-9.761678085654871e-05,2.8689277152757486e-06,0.0001837854029598236,-0.00037164803333622617,0.0006762604239657685,1.128812247500879e-05,-0.000569654504640442,0.0004919183100198388,-0.00010339742176292696,2.7720393698097735e-05,2.6104640608844067e-05,0.00039863952785032996,-0.00019241382910154372,0.0002590279605630503,-0.000318965028323803,0.0002966925249356478,-0.0006595902736936617,0.00087292410415769,-0.0004810827901646987
        ],[
          0.00032658706433169767,-0.0006915314529432007,0.0010708966962543615,-0.0011167127882720923,0.0010770665480367252,-0.0011031224139278796,0.0010259875203637789,-0.0005589214454343253,0.00020936852764780883,-0.00037056710424421616,0.00042076100762247076,-0.00036156905963873054,0.0013133346034887791,-0.0014213772643566769,0.0012648922158094641,-0.000975936243464301,0.0006273727446457975,-0.00037162059520637336,-0.0006146018277289472,0.0008173517198992591,-0.00044490558109557335,9.696198726061311e-05,-3.579410049900367e-05,-0.000316030537359506,0.0005429058052300803,-0.0003031803672220671,-5.702870363237522e-05,0.0001247320483397929,0.0003370961441288185,-0.00011066179171425466,5.935313198236064e-05,-0.0006428679168470966,0.0006493149785677874,-0.0002957826524860336,0.0006515506484374572,-0.0008774778577591673,0.0010758333640422633,-0.0011610220872686136,0.0010817736306067104,-0.000866456425694391,0.000850210335882659,-0.0007573884137850803,0.0010439734319089393,-0.0006781503689308153,1.3504288089018907e-05,-7.06933935951913e-05,0.0005566597078879021,-0.0005347117998055918,0.00042109405219812983,-0.00016379413806752105,-0.0003074389145753878,8.152102865932251e-05,0.000244612499601643,-0.0005807648646890158,0.00016206663920154823,0.0001478031275777749,-0.000468182678200247,0.0010324710325754615,-0.001053638735103288,0.00043380994658396947,-0.0004149467027079832,0.0002320740584454417,0.0003170375070175348,-0.0009028400619851898,0.0012767023331047185,-0.0005259902876845295,-0.0002745716852845196,0.0007507581583089933,-0.001105970126915901,0.0008187784676719507,-0.0003348461333505127,6.381904359973808e-05,-5.8168742658792905e-05,-0.00011008957057462646,0.0003593043989456833,-0.0006151482962614349,0.00039643181802559435,0.0005004047567920347,-0.001034749316799314,0.0013616928021354174,-0.0008261152907568766,0.0005603731273327714,-0.00023312282206450295,0.0002026946852413036,2.9637914273532642e-05,-0.0007044622032662731,0.0008253514488510572,-0.00034714422290251824,-0.0002410371944758594,0.0006729191327738103,-0.0007194967921431757,0.00014117357109440232,6.586224036579137e-05,2.881414769210968e-05,-0.0003331728921186234,0.0002706546059213933,0.00025537087279034476,-0.0005606822722415382,0.0002533038525984431,0.00024464690827518364,-0.0006742051255918648,8.602608410901045e-05,0.00027735344723881796,-0.0008525924047924696,0.0004789233546722937,0.00019822380335336297,-0.0005975233410677851,0.0003591393883800127,5.7722649693505226e-05,0.0002170395637352395,-0.0002607724032386927,0.0008375530890617588,-0.0008104947892355443,0.0006518434756636769,-0.00013510187614514894,2.1436904577608676e-05,8.839640999317062e-05,4.058557940795314e-05,0.0001018028201329891,-0.00014190540876882207,-0.0001394886338492926
        ],[
          0.0002253401554775734,-0.00020499634940500454,0.0004321640014590892,-0.0005653509625309643,0.00030499382377491985,-0.0004617978617645561,0.0002746893445358023,0.00014485162824402103,-0.0002265297219315464,0.0002500126488811089,-7.711683937004451e-06,-0.00017717098797221525,7.905450461551675e-05,-4.612304453036574e-05,0.00013742950218377699,4.136285594202459e-05,0.00021565182101444715,-0.00026412655529230015,3.360414676749509e-05,-0.00020149480007388657,-1.5180716701305996e-06,5.8653346551736075e-06,0.0004025052788059864,-0.00044632901864463865,0.0005020578598268488,-0.0003819811250050263,0.0005719489369705381,-0.0006546328501241601,5.93746348952547e-05,6.779190293620192e-05,-0.00018681356673778927,0.00038417496677330067,-2.5132661015280248e-05,-0.00031516521704559987,0.0002740686642558471,-0.00019461838048825128,0.00045316362917494904,-0.0009909343785713524,0.0006235700516387791,0.0004437135746013193,-0.0004442005191118868,-1.1878792338668523e-06,0.00014419043964383196,-0.00019621805991641402,0.00014821188203589667,8.390859820965602e-05,0.0004319781548895545,-0.0010632532960221893,0.0013145085169246806,-0.0010529411643530604,0.00038741338503796535,-0.00018244914197476994,0.0005183585407504908,-0.0002470421404165029,0.00021899478154696356,-0.00030277008101260846,6.749947203801713e-05,-0.0004000399754617704,0.001202587199654681,-0.0016188041408384069,0.0014872406575390485,-0.0003723436222610821,0.0002447164378925595,-0.0004535952732363385,0.0005384129797381294,-0.0002543123951194836,0.00034492382762364715,-0.0005143711265137877,0.0011574395259973725,-0.0017097463805878258,0.0015687521467849658,-0.001262237592057843,0.0005221188454253686,-0.0006586838467586018,0.0006985941955537612,-0.0006543133355062934,2.118707620430262e-05,-0.0006126642028867354,0.0008148276989756705,-0.0008346604257304545,0.0010101578038649141,-0.0007987339267039747,0.0006590684075146783,-0.00032899304622412465,0.00025244477553494084,-0.00048138666075169586,0.000572313330371652,-8.070449685911875e-05,0.00011459679126925304,-9.526813631924314e-05,0.0005256513599107837,-0.0006923113671012198,0.0009247125657709937,-0.001214222920285978,0.0007553167282642592,-0.0006265135639080598,0.000780382366824438,-0.0005274001115539383,6.821083747082833e-05,0.0005517056843886677,-0.0005012440452085735,0.00021933517587568747,-0.00010800447815857966,0.00015784186188849561,0.0003460319845982689,-0.00032203851318684954,0.0005156839115045345,-0.0005279288923526169,5.387653705848038e-05,4.3913243117912545e-05,-0.00035711093137911045,0.0002251801970746775,-4.7293182602912726e-05,-0.00011064512546957563,0.00014798536239689093,-0.00038256560664729194,0.0005737540107698157,-0.0005713212926668122,0.0004018361628477618,2.8472451851857886e-06,-3.655102122971103e-05
        ],[
          0.00026184473715258616,-0.00030314334277745103,-9.741215867127562e-05,0.00013493339103946844,0.00012928847908169616,-0.0005929330539432287,0.00018953241054529835,-3.378031397396897e-05,3.9529435974780536e-05,-7.6034659851551e-05,0.00013617787377516455,-0.0007731476135514753,0.001008208696781393,-0.0004346284366634756,0.00016715761607456747,-0.0001280400580005031,0.0001537609572914711,2.703614138327426e-05,-9.93529508907659e-05,-2.920323524983892e-05,-5.4403461555718735e-06,0.000171739180389624,0.0005259565440463229,-0.0008904999219694482,0.000515526974478861,-0.0005265445903655935,0.0003293276319455418,-0.000460296255712922,0.0002793333998960812,-0.0001989317858694939,0.0003774516400334993,-0.0005557879570131652,0.0003393124364565736,-0.0004157243182172643,0.0002930054318506792,0.00011861401753333889,1.749863204242308e-05,0.00047719818264413405,-0.0005254199382636743,0.0004845749227333218,-0.0003519321555391641,-0.0002095286155230358,0.0005889671186150719,-0.0004300104845629399,0.0002674637071978757,-0.00014971878752399054,4.77615529610835e-05,0.00011651699562702234,-0.0003568056572891276,0.0003963463935005296,-0.0004952129920255538,0.00039896228283606283,-0.00012843090186584472,-0.0001349804085351708,0.00021399275741997015,0.00010460795523341716,-0.00024164803973640223,0.0004203857967718487,-0.00039483153482468974,0.0003531958722244946,-0.0003242494946091648,-0.00028002861973311366,0.0007523438256079873,-0.0005893592490311961,0.0003726102108201415,-3.617017183439597e-05,-0.0004770568069793653,0.0010190710748850251,-0.0008402120808343252,0.0002501634252385365,-0.00012744060832554222,-0.0001115650818564462,0.0008191760323417729,-0.0011366886605837373,0.001362715172398131,-0.0009358863531163039,0.00028094863935469727,0.00038091052575605494,-0.0006876890844352557,0.0005641016898567108,-0.0004098536411787819,0.0007969472635942602,-0.00046690024413636316,-0.00019294125173523538,0.0005933835738810601,-0.0011316380148233794,0.0014324025744585252,-0.0005733847417178813,-9.96572310270824e-05,-7.656168592066331e-05,0.0007972034515059331,-0.0013938730641025465,0.0014003963611299575,-0.0012654276127962438,0.001431208944877884,-0.0019174382827197353,0.0016014562203031449,-0.0010959254717245216,0.00026156852314851084,2.3562705646053284e-05,-2.858842108000026e-05,-0.0003460386135482191,0.0008084586854518114,-0.0009760509231899611,0.0005239143163082507,-0.0005263130410160348,0.0010881317282366038,-0.000775753465900135,0.0005708193679145185,0.00010725644251824993,-1.2193387133277445e-05,0.00023404163918688825,-0.00019841897377612105,-0.00035748677851131505,0.0005996808559905961,-0.00031992526145491196,0.0003862390946586629,-0.00042523152638500664,0.00016135450993032784,-0.00013760234891907128,-6.772860021090135e-05
        ],[
          -0.00012491471388378916,0.00032864063678644806,-7.190252509987893e-05,-0.0005673938051382749,0.0010546606299635802,-0.0008038140384423603,0.000261962512295405,-0.0003343726553444032,0.0007377035768577067,-0.0011414139439869936,0.0008630727806382826,-0.0003230711378844897,0.0007789259154397099,-0.0012167114148952662,0.0011598338276556375,-0.0011861231480033568,0.000540535541846951,0.0003301690137674923,-0.0002503970854937504,-0.00013053177995057952,0.0009390597280198448,-0.0010883837767110688,-0.00016045586015170366,-0.00011678449250110412,0.0006240723825074873,-0.00025731914232794695,6.490380028856269e-05,0.00025817935795009045,-0.0011689674902761876,0.0011130456793268656,-0.0003638826291318259,-0.0008612155985877473,0.0008663589812264172,-0.00010046425345454357,0.0008860425556532006,-0.001736280609435703,0.0016795681070091995,-0.00153364955901239,0.002029059076728512,-0.0009500115565983652,0.0001083395350334887,-0.00027824924214332053,0.001105009058626101,-0.0007411431369242702,-0.00033176359597500427,1.7863934382009172e-05,0.000570025777886167,-0.000369315706153589,-0.00020325726813811423,1.901224264080903e-05,0.00010358918164354164,0.00010448350583450172,-4.221596132170102e-05,-0.0008408021322114448,0.000769890789215126,0.00042867791623711626,-0.0009322259817520634,0.00023644278544616634,-0.0004653219878644338,0.001135410688313021,-0.001072795747178612,0.0005116524908903922,7.529454830510623e-05,-0.00037204054012823784,0.0009730602791725648,-0.0006937397360659361,0.00010533734625637822,0.00014042637238078498,0.0003458099715235932,-0.000912435597612532,0.0011029593437546156,-0.0007012861497012503,0.000392780914088859,-1.553064266605203e-05,-0.00013778648529162024,-0.0005222471096525787,0.0006750319315061738,0.0006440367867917227,-0.0011098546110248353,0.00047708012117279874,-0.0005347011947693311,0.0008502978814860715,-0.0006945562467724278,3.305918150535957e-05,7.444719292002029e-05,0.0003821857550425443,-8.030039642615422e-05,-4.616838437829576e-05,-0.0004578727512147898,0.0004976133818933547,-8.619872295808663e-05,0.0002864675624020367,-0.00023607679941493355,-0.0005410102921953215,0.0007913158674275125,-0.0005372283765069721,5.908696717963485e-06,-1.6683763842569033e-06,0.0002589934936290481,-1.3066908957980877e-05,6.881359088199181e-05,0.00015818211468030408,7.680954422019815e-05,-0.0005561941706863928,0.0011406477808386232,-0.0009560494170035988,0.00045669127033772243,-0.00017351961318184256,-0.0005608422924273625,0.0002713567903255918,-0.0003038795177918649,0.0008604749379957513,-0.0009807908567906016,0.0006990324087734904,-9.634372820085252e-05,-0.0005000717104213306,0.00042652454981078236,-0.00025158327193367837,0.00024230427646307166,0.0002969260700093953,-1.204820519160564e-05
        ],[
          0.00014670853659449904,-6.658846102382179e-05,-0.00016949132261351676,0.0006321042638536675,-0.0007338182465766727,0.0006276441545689296,-0.0006966711517228227,0.0016146556524412412,-0.0017173003417906847,0.001588488717651193,-0.0008954676356180981,0.0004299740318851196,-0.000645759514058182,0.000708682301365814,-0.0007517734949406502,0.0007294919008024065,-0.0005662340522368098,0.0010246518735869384,-0.0017211773316785659,0.001821993115550847,-0.0018303173090571884,0.0010268895103748609,-0.00020265582415873685,0.0002939471517611138,-0.0007789832904748189,0.0015024128659444575,-0.002099736434727257,0.0015372769673384452,-0.0008113233278424835,0.0002789737270742108,-0.0001448468560224848,0.00042528847156701917,-0.0002666917124593685,0.00012639335970595234,-0.0004928031273944684,0.0007837186117242874,-0.0010354442079937294,0.0012513185607082322,-0.0007951055129443174,0.0006064584881242067,-0.00046942090272451896,-0.00021716270463499826,0.0005077378034340669,-0.0002980042192760094,0.0004316024221928188,-0.0006676481412479275,0.0005831128249665374,-0.000163637029340181,-0.00042162410113419087,0.0005725627370715457,-0.0008635293856500651,0.000642349098582936,-0.0005149461718680802,0.0003090859459405224,0.0002800723084846295,0.0002581799693675802,-0.00025616856690641654,0.00020143797434130344,-0.0006360960483642389,0.001322643118627712,-0.001693960189586733,0.001680571176479204,-0.0012808833319867092,0.0011489550132819397,-0.0009240301482911525,6.475234933029105e-05,-0.0004687087853481332,0.000396891035800226,0.00015711167939073045,-0.0004238392251275597,0.00036720237560498696,-8.8956624820566e-06,-3.1055478384795366e-05,0.00032957675691653167,-0.0009212854731537376,0.0007154113580891161,-0.00016668531615662933,7.907156753731966e-05,3.976911681321366e-05,2.5709595554547038e-06,0.00012890286838702577,-0.00013357849571741024,-3.856030082152029e-05,0.00027278908330597584,-0.0007190042308559833,0.0013120093569125827,-0.00131260925558316,0.0008371844663773154,-0.00036883878866415614,0.0004734708283883118,-0.00036015055292983023,0.0002002207902108889,-0.0007867923861570104,0.0011272084028785194,-0.00032849134597223457,0.0003787316891093678,-0.0006441564774972443,0.0005709809322913904,-0.0003501289353163463,4.757205227487742e-05,0.00032131741282011446,-0.0003923972431981552,0.00012568909915922012,0.0008662395978447411,-0.0012173989354502897,0.0008150491206574856,-0.000548239062884204,0.0005320159238094664,-0.0005922521395791527,0.00016893866087462015,-0.00010057974228952303,-0.0005238442945802583,0.0005199611408014419,-0.0001670808770529517,-0.0002862057822608603,0.0006632288315169413,-0.00023040557252870396,-0.00051473176342221,0.0006722915798004763,-0.0002174915658272877,0.00018710850759877926
        ],[
          0.00013375502363819074,-0.00012054869955309129,0.0003038201333242724,-0.0002336864014559775,0.0004573286697603868,-0.00010946137492807702,-0.0004900967373216963,0.0005924041511871992,-0.0005490350217030348,0.0007229448771333103,-0.0006301744092296457,7.137700628987917e-05,-0.0009053887980964492,0.0008066618201300022,-0.00021935394893921154,0.00017317086520948159,-0.0010693153416182321,0.0014943859572868784,-0.0017250154813205306,0.001402457273692361,-0.0006888999418622032,0.0002984012349070334,0.0003141642783525148,-0.0003387591174185586,0.00037641083842071185,-0.00028791085385785644,0.0006310021015636547,-0.0001086390595125158,-0.0006715713906727718,0.000979827346859706,-0.0005195918242164282,-0.00022952638545588734,0.00017155875147253506,-0.0008695811545700768,0.0013953250193351919,-0.0008790630916346459,-0.00010964677468814515,0.00035992264982878447,-0.00019061730747378875,0.0007978406677429154,-0.001396942135619518,0.0013822509281739151,-0.0012169088463114483,0.0007652984917292713,0.00030286428668299935,-0.00029394338993332517,0.000439716014608792,4.854479218316279e-05,-0.0008847212330686954,0.001266888022402864,-0.0018868636536919546,0.0018781323621795045,-0.002031354020563835,0.002005715693069098,-0.0007957105265411638,4.5950471504285816e-05,7.926737594051163e-05,1.3514133633307822e-05,-0.00022168156218764913,0.0008800216925778146,-0.00122067265230834,0.0012353884073559157,-0.0010456746655783515,0.000992655542404237,-0.0012916499852418301,0.00043254121906357234,7.002528130184709e-05,-0.0009341023868386289,0.000539577040562394,0.0003998449534738116,-0.001212193524362003,0.0017649626918102455,-0.001788432214175074,0.0014588738210404555,-0.001138167652301234,0.0010418858208494093,-0.00035061690778549694,0.00014688751622388672,0.000433211578813256,-0.0005147561386734262,-0.00025150924874869305,0.0009827576269328215,-0.0013505910057666375,0.0005761639485116175,-0.0006886742315054726,0.0010779202813224597,-0.0003540720034842624,-7.243367127517076e-05,-0.0004897089096747964,0.0005245558997401245,-0.0005970011587790142,0.0013323177469716646,-0.00145660588681041,0.0016604725338587568,-0.0010576072878297777,0.0012716885216757265,-0.0014394357820767137,0.0006304791183695878,-0.00010093628320000317,0.00032591668999343184,0.00024353911720940204,-3.690574884376586e-05,-0.0009265126265135369,0.0010841982181346277,-0.0014780915692831813,0.0008412839298024607,-0.0006563219722416818,0.0008694088701136877,-0.00047950080631303305,0.00011800497821813963,-0.00025193842936524946,0.00013584271591306793,0.00012520399634057574,0.0007067667213754075,-0.0004888648757602667,-0.00015561925027805622,0.0008799054483055822,-0.000700387988962472,0.0002539158386690675,-7.313294234933166e-05,0.0001078492930396645
        ],[
          -8.811039582776181e-05,0.00035308724712986017,-0.00035472989381658826,0.00011037744191250143,-6.508863679870192e-05,0.00010119346462314494,0.00030785526740351177,-0.00030105616075291886,0.0004386007976345113,-0.00018516545127096606,-0.0001425787190308045,0.0010328014576216765,-0.0012867826564979257,0.0011284507328870458,-0.001172295719608779,0.001056127821232114,-0.0006019655234205668,0.0002896198364874675,-0.00023614517007324726,3.701136113357095e-05,0.00011861746944846763,8.190329980657662e-05,-0.0009064456386606995,0.0018581593519803458,-0.0019567707304624093,0.0015664251383134403,-0.0014024978379055253,0.00045093472544646684,0.00020930486187160924,-0.00044984374106951663,0.0009635274846547248,-0.0007822938988090514,8.058872106871812e-05,-3.4219005341937225e-05,-0.0004901721492457517,0.0005971384276264244,-0.0003119635311141927,-0.0003793407313479047,0.0010459130142616707,-0.0010486848022319278,0.0011531757880762356,-0.001540543294483089,0.0005764405821899465,0.00023141021158864378,-0.0001267885779759892,0.00019911967027376465,0.00025692416165223886,-0.0003642104437878019,0.0007211964375201801,-0.0011281232678539144,0.0010030311107587786,-0.0010599418620809986,0.0011897585879530534,-0.0002841067072464551,-0.0002377439512850077,-0.00024069725925127822,0.0004729348911503839,-0.0003338144555535827,0.0002139590283107909,0.00019838708352705459,0.0007778106904473558,-0.0015724822550259934,0.0017723935568669316,-0.0014263892633164174,0.0002823394876030061,5.492057099043546e-05,0.00036816948324101817,-0.001299341640501564,0.0015301228797112917,-0.001076897712172488,0.00010918164102847322,-0.0004246134533868323,0.0009625012198412608,-0.00021587273994177342,-0.0002300484407428069,0.00039035352602789786,-0.00015533023604819007,0.00012409425992031958,0.0003276709726397209,-0.00028888242398316874,-0.0004392326492526147,0.0010877324160709079,-0.000731629487560212,0.00030348097761753734,-0.0005929707404694617,0.0005462475013651089,-0.00015833315259235897,0.00021428697413811842,0.00011665974725143247,-0.0009356627355085745,0.000492025834504823,0.00019158325410492671,-0.0004812376616430414,0.0004898351791358876,1.8942578958888734e-05,-5.447004140145956e-05,0.00011438567252688991,-5.1307278837939285e-06,-4.6290842238713714e-05,-0.0005987070772113037,0.001713455549647032,-0.001094320390303244,9.576833855486772e-05,0.00022707861956712538,-0.00015008046880725379,-0.00038914624295242894,0.000387856428687397,-0.0003123151458851031,-3.57100141987754e-05,0.00017040936503190385,0.00015544909117636008,-0.0010796053465004368,0.0011532159453473412,-0.0009588076775001175,0.0011247789912297024,-0.0011540255452632889,0.0011247087915028115,-0.0010779930178130399,0.0009110700444004828,-0.0005499557603476785,0.00018725261909949276
        ],[
          0.0008475463478921398,-0.00040465049025844094,-0.0011748552492851297,0.001776463761769046,-0.0013744953220855942,0.0004699175992335016,-0.00038253323824546763,0.0009690251485162445,-0.00104579818784945,0.0009643670047104584,-0.0004248822050119238,-0.0011094067821372892,0.0014881593645963542,-0.0008540989139560109,0.0005021940422276633,-0.0002953519117603262,0.00012991292730680018,0.0003480256804902961,-0.0011697317578288,0.0014482011909544394,-0.001191927551439079,0.000635070588555697,0.0007987058852410266,-0.001298889678634143,0.0012621258998180077,-0.0008363232487827825,0.00026629696278602545,0.0003046173870967228,-0.0011070356759156665,0.001421060060628171,-0.0012615096772519898,0.0006883798582615185,-8.965274969092649e-05,-0.0002411878522150905,0.00024192469063014435,0.00014229551380990843,-0.0005815095208285982,0.0007525365056121596,-0.00033052819502441336,0.00047340191270014466,-0.0007726257475014642,0.0003011754469424959,-0.00012806593700645866,-6.715564920769385e-05,0.0003594490865347702,-0.000608972557449839,-0.0005205980373816279,0.001054842144781451,-0.0012940518337241393,0.0004349172681427458,0.0002053352761021924,-0.00012204089279179223,0.0003355268993354057,5.81548256237685e-05,-0.00015247966063881326,0.00016288653922304913,0.0003361664414066705,-0.0004559920561029787,0.0012369624055981934,-0.0007785217199610638,0.00042153557772988196,-0.0004084893980706855,0.00030623709030562496,-0.00029251936523866373,2.084338589022905e-05,6.576412261103661e-05,7.744842059815432e-05,-0.0003569870896704217,0.0009195455461659761,-0.0015272620299795411,0.000409756233220147,0.0007316710349372646,-0.0017377127038291883,0.0015769214958930057,-0.0018673133455301347,0.0015578083698742926,-0.0005500882044968637,-0.00047190978607859757,0.000617694725602037,-0.0008829042180324258,0.0010951241674218692,-0.00041978734563024103,-0.00029066537245253654,0.001590605990739619,-0.002264788640233578,0.002217726745978358,-0.0018901627531459305,0.0010420185056668509,2.4842228022186816e-05,0.00020444292953271728,-0.0006893887137822199,0.0011295648165481134,-0.0009808312064430863,0.0008198143672894856,-0.001070106703942664,0.0012914506236389005,-0.0011371703287546275,0.000765663865208731,-0.00023817174155151547,-6.144571556070469e-05,-0.00023866379685408452,0.000482269712140734,-0.000595326856097908,0.0006531526800991998,-0.00045594741294242846,1.7142993024573533e-05,0.0003330237076329592,-0.00021020503052542657,-0.0003099210102367727,9.073719353111925e-05,0.0004578443084599128,-0.00029289776374044445,-0.00011197357667322959,0.0005938458845350086,-0.0010504985597978352,0.0011127000210145576,-0.0005631918171552508,0.00013236773128074385,-4.4747521508413206e-05,0.00032776568197062585,-7.80972622334658e-05
        ],[
          0.0001447044100876052,-0.00046188964316938586,0.0010820562346419982,-0.0015395014458141239,0.0015681045622517181,-0.001387364043314198,0.001250643703047092,-0.0005276512722203162,0.0002275396575614902,-1.869950867040837e-05,-5.679715246420525e-05,-0.0003324129165894023,0.0013875115711204401,-0.0025347129158209934,0.0030473482758556873,-0.002987608559686817,0.0024417048707779665,-0.0014744498884043666,0.00030889177297274695,-4.930288397358637e-05,0.00019585456534007561,-0.00038321818025183196,0.0006494735146131622,-0.0022174867983373262,0.002824360188046377,-0.002756556064528957,0.0022510873453472236,-0.0021221207563282725,0.0017039588267193338,-0.0006749927385027478,0.0004900684260849761,-0.0006680523584233003,0.0005304257280432378,0.00021052314841156147,0.0005771335136244751,-0.00033697385247990694,-4.088902016773435e-05,0.0008443840316758461,-0.0009997233320279478,0.0004879104012257447,-0.0002558501277999878,-8.069304773126659e-05,0.0003058548972063313,-0.0002904013888814713,-0.00025439363739488893,-0.0001387251146391065,-0.0006083252031329617,0.0011309347348931603,-0.0013650263198373529,0.0011815531443884544,-0.0006584879279192303,0.0005922219938270384,-0.00014796368653857694,0.0001947820616829618,0.00018647729910695882,-0.0007538825679392833,0.0013209362874357505,-0.0006356992678748889,0.0004962428418119058,-0.000845458768457933,0.001339869243247662,-0.0011780361066783852,0.0005835734941708401,-0.0004995446399294751,0.0006580709830754025,-0.0005524530044872175,0.00027330486605295704,-5.614959840812353e-05,-0.00015621327660699652,-9.221612036798901e-05,0.00047207394455154456,-0.0012621989111112862,0.0015334722585190197,-0.0013811737917152414,0.0014042333039078689,-0.0014342221086725837,0.0007222760630893818,0.00033992871489794615,-0.0006860454396263559,0.0006556398642715879,-0.0003928622291343824,0.0002917484545640163,4.181355484110874e-05,-0.00038230947982192953,0.0008911711721541586,-0.0008841275453014275,0.0006826503195130826,-0.0003134452476666848,0.0004106174801349789,-0.0005265710544071316,0.000282605000521869,-0.000663175529299672,0.0003449438809783583,0.00013534327589819102,-0.00037817163603599303,0.00036678700972821165,-0.0001733278314857492,0.00024366685310354963,-4.7179471939957224e-05,-0.000580488926530242,0.000707512229160781,-0.0002910542096014254,0.0010454426105437065,-0.0007480511721783007,-0.0003283196917072233,0.00030975001132076997,-0.00016134865356254822,-0.000303716873091775,0.0002332779263531405,0.00010279820614084775,-4.4580181914659345e-05,0.000507698757529134,-0.0007248577689605261,0.0001616814022335801,-0.000264369804284615,0.000875216619659544,-0.0008297150798400512,0.0007235307012125654,-0.0003190909760081746,0.0002487800454671063,-0.00020579731637282417
        ],[
          -0.00010842778593105106,0.0007987619501353064,-0.00134709930926094,0.0013467723817978008,-0.001495072011039646,0.001626208421219577,-0.0016035284562317437,0.0012036862357001528,-0.0006178026295504134,0.00018751242299116852,8.946649279961531e-05,0.00014252967877100486,-2.4444474348776172e-05,-0.0001122175859386269,0.00016138196340296552,-0.00012184494939607962,-0.00038324677009461417,0.0005238254022665602,-0.00029911494150464926,0.00027160304053155764,-0.0002333028411675601,1.1956179332567817e-05,0.000187142011963734,-0.0013720896409817373,0.001573209140183604,-0.0007594049585824922,0.00041727387512415306,-0.0002111718325508267,0.0011534877048910335,-0.0018019560099185664,0.0011728201027529307,-0.00032971323966976866,0.00019918526988510498,-0.00042933889223569334,0.0010054411726288961,-0.0007050078737766145,0.00038816883045764605,0.0004899722342630616,-0.0011658151323652919,0.0004137054925037342,0.00075118448454467,-0.0012043728821398802,0.000792333017451916,-0.0005395292042541146,0.000972195247723717,-0.0016410840448219202,0.001476075152265801,-0.001960959186201443,0.0010388977930506174,0.0007284160480222324,-0.0009822917974650184,2.914097707297248e-05,0.00021111477554977158,-0.000350703280419114,0.0003759840160602474,-0.000326691532101243,0.0005161914912499076,-0.0008125487100324445,0.0018045848274193018,-0.0013845545464604304,0.0006336450901790569,-0.0001492606960995202,0.00018811889627787167,0.0002659517047422121,-0.0002995490034209228,-2.8758445576576976e-05,-0.00037758045120062946,0.0007331233940749573,-0.0005423010180728154,-0.00012403205283434578,0.0007577106560742991,-0.00036421159703702943,-0.0002973447448721023,0.0003885125608044258,-0.0002858861790299259,0.00013414572901095058,-0.00021522499313736794,6.656644181669553e-05,0.00013276021547046308,-0.0007028686592070181,0.0010780070041846446,-0.0021255015372436477,0.0018610082073285282,-0.0007442920399518758,8.986870888132772e-05,5.4757133014232445e-05,-0.00024291894569948612,0.00034384222491689643,0.0006600272920766557,-0.0008006483904696211,0.0009054237981563381,-0.001207319874905021,0.0017912104360539125,-0.0012842001588482482,0.0003849707068433446,-0.00017005585229546954,0.00023439202080203142,0.00011118575528997225,-6.593177925560848e-05,-0.00027178882170645767,-0.00023720287674336817,0.000651822744596433,-0.0006873555531504108,0.00046849374883438334,-0.0007502435043343536,0.0007053901155759266,8.867352137562621e-05,-0.000527789984604922,0.00043381140675549613,-2.788989599061321e-06,-0.00022415668248949676,0.00039841949238929607,-0.0002598871739973943,0.0004409539405934224,-0.0003446556664283651,0.0003470777567207197,0.00011063980910399484,-0.000651752979799488,0.0007195922692470881,-0.000262969877694139,1.8421135290193455e-05
        ],[
          0.00015124690932167997,-0.0008469134400891897,0.002011225071370335,-0.002848135252152679,0.0029053717532425954,-0.002066820633343524,0.0017716698838947773,-0.0014190868018226054,0.0013681900046820586,-0.000791362662277567,0.0002123257701559725,-0.0002810177481950237,0.00041718493697663324,-0.0014624936930715856,0.0022917384444284244,-0.0012674297468832064,8.016827690582318e-06,4.879223748329174e-05,0.0006098987809510863,-0.0009513672151397392,0.0004094436003581071,2.4121377650536597e-05,5.504747192827436e-05,-0.0003399578382826541,2.433429609429111e-05,0.00029736112213197814,-0.0007486384657521885,0.0014005657278138288,-0.0016056483405473138,0.00036273362861980195,-0.00012863755813180387,0.00027477029841143556,-0.0001724927874414984,-0.0008261909814748827,0.0015799734401791637,-0.0006620037872591973,0.0004274539629629658,-0.0012968934087150708,0.0009054055575684518,0.0001827814335627163,-9.532586165379405e-05,0.00010591421795037279,-0.00011484450570933835,0.00011218227230622244,0.0010867223343250473,-0.001360923470084454,0.0006011258759222298,-0.0010082654514327067,0.0011708103322704937,0.00016256206071224002,-0.0011382891258020292,0.0013905103601623014,-0.0009864976559226973,0.00081992811407671,-0.0003391536695775448,-0.00035183301130278853,0.00027688465512004656,-0.0008710684902544993,0.0012317017793914194,-0.0007887481358895849,3.19027618668367e-05,0.0004596584511010641,-0.0003727314579286443,0.0007620699562573829,-0.0006094470288083823,0.00037818854801397974,0.0016502320448191076,-0.0027698109106906,0.0031817884190434805,-0.0018608734893671235,0.0012912901609294259,-0.0014034028622431733,0.001115575618228718,-0.0009512701278223197,0.00042185496591836704,-0.000605619824001671,3.887801911143032e-05,-0.002215115791394358,0.0037439910939629536,-0.0038964444577806357,0.0015547696872102161,-0.0006416462279485603,0.0005182031105856796,0.00021181466570714447,-0.00041131868403874994,-7.9282820784581e-05,0.00047432980534354056,0.0001207307991385921,0.000290679197091602,-0.0006272119152016557,0.0010538051154773368,-6.0454134626972535e-05,-0.000890442856551534,0.0010501379316070988,-0.0012328814227958256,0.0008935437328838358,-0.00026859150074879686,0.00012201991234127757,-0.00027216673204339195,0.001021615872958047,-0.0012933632638475728,0.000706979342356082,-0.00043039687334774324,0.0011114039351900781,-0.0007322631051693907,0.0003478577849534804,-0.0001334982387589125,2.1358113296828456e-05,-0.00017389359299403777,0.00023080214615763906,-0.0004403367419816435,0.0005591793018214931,0.00010052384335224501,-0.0010703649738461368,0.0011985555224187333,-0.0010239837806951032,0.0009445904506584339,-0.0006764513505316627,0.0004115651455156662,-0.00016235563195018493,5.9401745136851224e-05
        ],[
          -0.00036089662311291834,0.001067277436958683,-0.001410917173406783,0.000701121509844322,7.742839936221262e-05,-0.00012356554627927611,-0.0004157442819613666,0.00038749797402265723,0.00023524039387490085,-0.0008565592643692698,0.00043891220132130713,-7.223820650993293e-05,-0.00021787565645198584,0.00044008731622966965,-0.001087001696336215,0.0020942546000217183,-0.002237707976533221,0.002411394875147188,-0.0027305665656904487,0.00159758268823943,0.0003274044431813964,-0.0005569216644350618,-0.0008914875281108466,0.0018130152025841277,-0.0014834993591655438,0.0015382324454258148,-0.002137562987686026,0.002077040170174657,-0.0018885095536475792,0.0018095104355992646,-0.0006215267773104329,-0.000810179382799394,0.0005948403830981323,0.0005689285384211963,-0.00125011794410829,0.00130563679820608,-0.0014604056089419885,0.0013428946478677341,-0.0005122160773164391,0.00033195303535845516,-0.0005859090527347561,-0.00016749566057187512,0.0006206116352669329,-0.00015461509024062257,0.000480823590185097,-0.0004160626247098134,-0.0005628432980267946,0.0013947653772091242,-0.002450112561835655,0.0021747874023413504,-0.0016665195712387733,0.001583116643260628,-0.0005432345374859092,0.0002118319454020648,-0.00024038037887872624,0.0010090389341796124,-0.0018483195838149419,0.002239929325087941,-0.0017343508682423348,0.000811531111137475,0.0008176914537935571,-0.002009306491088985,0.002282299341003308,-0.002656788786548658,0.0018674977394866924,-0.0003569806361803105,-5.0865459238071814e-05,0.00039585291268356276,4.489333070164386e-05,-0.0008313090647532259,0.0021824406014491343,-0.0032838755075044867,0.00295065373833075,-0.002690107570592114,0.0032821678073842783,-0.002203968520354026,0.000435447824007373,-0.0007040492392554956,0.0007196200153654006,-0.0008935637864701078,0.0012864050074206726,-0.0020108492488552683,0.0023942605900239954,-0.0013285818314133276,0.0003244129989486656,-2.572146704329101e-05,9.631521459329585e-05,1.2021024447340933e-05,-0.0007093015705724355,0.0014076518125360656,-0.0011941416518821482,0.0014139339380739822,-0.001316910418795652,0.0001135818064424525,-0.00044944323211796883,0.001374542819053986,-0.0015754835842162703,0.0007940225889358915,-0.0002343361379960997,0.0010752232764531036,-0.002158009696976486,0.001378634287241446,-0.001649975118736588,0.0019780357979419724,-0.0016016729383682808,0.0024223870368181456,-0.00244170301184555,0.0008491851602904924,0.00022760994041224995,-0.00026130609023651205,-0.0008418915094176652,0.0017913314485925903,-0.0017816845596242796,0.0015601411674536526,-0.0008898710865926224,0.000819856713887469,-0.0016369178078958005,0.001951035582994603,-0.0009029736345442206,-0.0003936341987351051,0.0003484882974932038
        ],[
          -0.00022627563600673833,0.00034258231669416495,-0.0005502775297378734,0.0005907324806842251,-0.0009069816936573688,0.0011422122031908635,-0.0012428135282719494,0.0013321856463914816,-0.0010367639742392826,0.0009555916580285262,-0.00048597938269445695,0.0002172240642870013,-1.6870897183440814e-05,0.0002760680118244138,-6.832251862650546e-05,0.00015235796628931125,-0.0007938727010332186,0.0008151584384492594,-0.00021402115473394268,-0.00025307820719702723,0.00015090729790029345,0.00022030876213528783,-0.00031290630019690374,0.0003564943478048671,-0.0004187719841776752,0.00011558326969060562,-0.0006016072450281823,0.0012915461809310802,-0.0013272281225010923,0.0010481748881764202,-0.0005573259334585579,7.611096395272743e-05,-1.9550164230289213e-05,-0.00012194251464800465,0.0001905584426531992,3.167734441448383e-05,-0.00030402991299622456,0.0005096207183144172,-0.0008689470988034603,0.001273916628715538,-0.0012140796429114392,0.0009166996697899388,-0.0003475569385479882,1.680478978470512e-05,0.0008198848188161051,-0.001523292253861927,0.0010514675170379753,-0.0008015754144863607,0.0011626696228597133,-0.0006642731483959552,-3.0352333771216378e-06,-0.0003836757114220324,0.00042037082518815716,-0.00023463889056535292,-3.095780919792901e-05,-0.00041649688214380476,0.0007705788575276748,-0.00019118171795347305,0.00043898276395047675,-0.001247960211309851,0.0011053869642293213,-0.0004836053548924746,0.0006446660028325141,-0.00047753846596963745,0.0003997062872267698,-0.00016621922104664844,0.0004271898448889727,-1.9027680682764947e-05,-0.0006156373047596642,6.497709371021398e-05,0.0009419807619409498,-0.0013634295006512975,0.0011553716019049448,-0.0018770536858974535,0.0017514968628496719,-0.0014392664471261224,0.0006098274590951858,-0.0002307930838081687,-0.00019115945138063056,0.000537834079956015,0.0005399404906454297,-0.0009252448671224767,0.0011209170967916293,-0.001935295606102394,0.0023800929510495034,-0.0019055958391762384,0.001766675302693227,-0.0008512795563284242,-0.00020606144365127588,-8.167472472210557e-05,0.00042779654998975625,-0.0009105166848851903,0.001286060461716143,-0.0015956353619333147,0.0019644764300884437,-0.0018444448753294762,0.0012774404691260552,-0.001427237699180836,0.0007232260460933067,-0.0006906020198103602,0.0011443809045049852,-0.0013340987727890607,0.001532694162173956,-0.0022342276891165885,0.003169037399767871,-0.0029160357752264915,0.0020538526445412,-0.0015133892135519474,0.0013378718750344629,-0.0004899535096234797,0.0005309568070840168,-0.0008087141478104881,0.001212594834053199,-0.0012749894328044215,0.0014872413556516473,-0.0017912087251100717,0.0020256933503077015,-0.0014327898917856526,0.0008069268682759523,-0.00043498265690838575,0.00014508499657144534
        ],[
          0.0020170180329996193,-0.004059708547993951,0.0045407992899173105,-0.0035885824665164157,0.0024601985446503633,-0.001442663514974532,0.0013204727921992537,-0.00106711916627783,-6.089903944282715e-05,0.0012760769013799023,-0.0010952158070479945,-0.0007479812283544135,0.0010658483510959799,-0.00149959450872144,0.0012506594187085274,-3.147081564612575e-05,-0.00048514138939756424,-0.00023717086216437644,0.00017881566491997902,0.0006451451973331912,-0.0016013370476160166,0.0013817185002958782,-0.0017711578681762832,0.003930381519907003,-0.0029171081194495074,0.001130460096167893,-0.0014783184485744477,0.0019101664948957264,-0.0011004751795801182,0.0017779875186368088,-0.0022422758918090036,0.0020823211233620548,-0.0013793226269631365,0.00027359223098052943,-0.0015356647150314012,0.001097560371252207,-7.149821525123667e-05,0.000315668071758049,-0.00033649026564719353,1.6858878783068687e-05,-0.0010750885447045333,0.0015250415367994569,-0.0010462429028929993,0.000645970213914715,3.442744712811585e-05,0.00011913892597101294,-0.00046257917372219404,0.0006934255326779132,-0.0016562874080878753,0.0015114493251144195,-0.0018230192965566216,0.00267202777360806,-0.003116111912230407,0.0023574034957508094,-0.0009852191791959175,0.00035697249510747986,-0.00013957340856085576,-0.00048154891728770244,0.0004398711903923769,-0.00040885392004098853,0.0007210735169340676,0.0001644622526472822,-0.0016872487214741605,0.001777254108278628,-0.0013690178505217226,0.0005669249994111752,-0.00022597140111151048,0.0002355456532422695,-3.8305920381509484e-05,0.0007676002422868089,-0.0013462391328695755,0.0010026986462242649,-0.0007778647352642692,0.0015524310988598994,-0.0021244842328397434,0.001578073004568567,-0.00038399233166297453,0.00022566452027487915,-0.0008027092455307888,0.0004653870052149789,-0.0003561236260000433,0.0007924799803780691,-0.0005740780527138251,-3.2853603611993076e-05,0.0005021062526170267,0.00016586069580072638,-0.000798759073658839,0.0003243911234030103,-0.00036426803279475395,0.0013177819624153042,-0.0009200736058557757,-3.754596656312115e-05,0.0005262743082035323,-0.00034046411600714005,0.0005802756808039461,-0.0007323185995812033,0.0003372057471862436,0.0004327082870065023,-0.0002969811386931004,0.0001548929755830486,-0.0006158077839512333,0.0009255426393909166,-0.00016299792501050375,-0.0008253416977964181,0.0006606644998528206,-0.0006188097232222717,0.000759059991015408,-0.0004754845634537229,-3.358414590638216e-05,2.5391182456174777e-06,-0.00029142877268324707,0.00048205950926608065,-0.0009191089593907631,0.000555630792479403,-8.910730316921342e-05,0.00038022786098255296,-0.00040748338226203294,-0.0003033147451495322,0.000356667702161452,-9.196404928230647e-06,0.00010374741983714547
        ],[
          0.00030340157237258164,-0.0007467245403125198,0.0008617667569805641,-2.5049875414504853e-05,-0.00033058903962537335,0.0014594407146933594,-0.0024651684934973717,0.0021309818824158788,-0.0016595782906948207,0.0012101814580016395,-0.00012550684339198218,-0.0008646569123249342,0.0011675876935126378,-0.0016495532027807737,0.0009663513728640919,-0.00023703007942386858,-0.0005139115275162994,0.0013454509202420204,-0.0007115536418073349,-0.0008250817591737118,0.0008251132557342382,-0.00025947952085561207,0.0005873953385436446,-0.0018681050137892693,0.0027723207179777753,-0.0021665006685190717,0.0006466392676331405,0.0006615981073620335,-0.0005756007618808422,-1.4353643540122168e-05,-0.00042264421554386207,0.0007001388620440589,-7.515527311532239e-05,-0.00011325692062011047,0.00042142915389309366,-0.000883521809177867,0.0007940178763380379,-0.0007658858766968462,0.0001532140866760557,0.0005251696988186911,-0.0006170527418312335,0.0014755571081804426,-0.0020133919282115543,0.000970736020094131,0.00011040967993912118,0.0005590926699217368,-0.0008964150205604208,0.00018891670632683807,0.0009884784053263117,-0.0016741057992142334,0.0008319574233146641,-1.0018913368178492e-05,-0.0005625318474601591,0.0010139661346398945,-0.0006296895549061116,0.00013697851633760923,-0.0012703186673598734,0.002184320615447823,-0.0013819324674371313,0.0002669104940035503,-0.0002271574934980796,0.0010974765371763572,-0.0010808610445941658,0.0005827612881657285,-0.00017759369860967725,0.00012912230009592268,-0.000791466134185315,0.0015985455166005452,-0.0020391366725511974,0.000511798162573374,0.00020879279217903175,0.0002029830780300914,-0.0008214218255954905,0.0005854412239558356,-0.00021044757331927302,0.0002954326126450701,-0.0003747526568086499,0.0011805641503545867,-0.0023953627905750462,0.0036109272363653785,-0.0022683882267638938,-0.000156381288922992,0.0013675360764485098,-0.0013381708765265472,0.0013612157896816923,-0.0015692584290924738,0.0012226342724875917,-8.709753189500499e-05,-0.000986105367016021,0.001620992583490466,-0.00201913830061563,0.001273826160201958,0.0002275384831907333,-0.0008756388964784676,0.0009129777728013773,-0.0015567262775962737,0.0024835424349861496,-0.0019414130293466253,0.00045568580233576114,-0.0002895132615151792,0.0006468798469869731,-0.0004943177455257464,0.00035997925919083185,-0.00025946547587614617,0.0003417710593616244,-8.921909195280797e-05,-0.0001528906776104913,-0.000562103057653994,0.0006222094232503465,0.00029330378505399227,0.0003272000244119132,-0.0002814089568034528,0.0004815161941028982,-0.0008610682475395127,0.0008615157885544476,-0.0008805685611627569,0.000841415970404524,5.207653431895179e-05,-0.0003142735314032377,0.00031834639359542075,-0.0005250218901288184
        ],[
          -0.0006856544455955266,0.0009187180282956703,-0.0005310147439821639,0.00014782448148747962,-0.00040141994537278014,0.0006621025630480643,0.00018289810397777162,-0.0013142225987802653,0.0014412048679192518,-0.0007237202888775857,8.807143321884481e-05,0.0005123823909872066,-0.00014358260660533861,8.329087883916786e-05,-0.0007711765047359875,0.0013657582257287637,-0.0010592327939045743,-6.708504137729887e-05,0.0024294459697646736,-0.003169918858179216,0.0014666529088709912,2.8676397279492338e-05,8.068050775136837e-05,-0.0008247353323182216,0.000235273782769857,0.0006435579839104283,0.0003033841037624746,-0.0018856305442858101,0.003242800733075285,-0.004485811659654906,0.0032379332552520818,-0.0005871633900275813,-0.0003056500063527423,0.00010262309683860271,-0.00030851102077457393,0.0019577812611472345,-0.0024063792805234657,0.0008885153494670589,0.0006486624356324411,-0.0019936417506206394,0.001436068609712543,0.001639962180043239,-0.0026642024517176954,0.0012078669346584775,-0.000396055502391357,0.0006757714157597239,-0.0025205069854811746,0.0030222438547561348,-0.0020793656584580655,0.001960474070791876,-0.0005415530170079924,-0.0009835413958836775,0.00010603534973124829,0.0009310716879662173,-0.0005429525740217045,-0.00010767930926566804,-0.00045920770144888823,0.0019894168106876983,-0.002841192323338043,0.0023276462324738345,-0.0026696440251549602,0.000675354244773746,0.002676548967657122,-0.0028458018836098886,0.0009294092775341406,3.9458973266237596e-05,-0.0002726666250926213,0.001521463793547343,-0.0027202313623337845,0.003604727247740941,-0.0030973524435796845,0.003292756511952037,-0.0020833382386964694,-0.0002070414967789702,0.0010603640210622572,-0.0008485098753331644,0.00022704628762465484,0.0006128860294020849,-0.00011169074744533242,-0.0003544835487712984,-0.001102269601122051,0.0020019393749254044,-0.002410117683016695,0.001869174176575894,-0.0010007887030812207,0.0003388039807564677,3.166002109071531e-05,0.00010264127381662269,-0.00041119305183224056,0.00032675698519754083,-0.00034273841273497335,0.001262111958114702,-0.001046531932845842,0.0007832560517701537,-0.0006613061343406432,0.00034701031267162646,7.728523273226734e-05,-0.0001794852898555216,-0.00014633782747074803,-0.00022339246124868182,0.0006133226742171347,-0.0003507919088335497,-2.8629154400335033e-05,-0.0004450110077870127,0.00010429536185152348,0.0003219000053383443,-3.651139259829364e-05,0.0005832438643850538,-0.0009593829177713085,0.0007041238973612071,0.00032595490549631285,-0.0008955574054652386,0.0008068708010019734,-0.00034361545485588497,-0.00023401204106433598,0.001004877577951408,-0.0009505680616697914,0.00045692424674478047,-0.0003328564144992755,0.0003042645256815923,-0.00022161224434424746
        ],[
          -0.0010356694059184095,0.002288411812254209,-0.0017727533737785274,-0.0006753000273593442,0.002954863050269787,-0.0036542284914855873,0.0032329713154662064,-0.0026898744143706334,0.00166224545822391,-0.0007277135337300164,8.11700985234795e-05,0.001576892923785933,-0.00309200358354815,0.0024260251670009426,-0.0007509252757410545,-0.00016068316397644875,-0.000716755191711077,0.0007975138566968971,0.0016027326977490104,-0.002054080327868666,-0.0001348811832658399,0.0007114096661448854,-0.0006665503521061308,0.0028243140900803647,-0.0038619768791802248,0.0030067171946639194,-0.0023370140563539928,0.002714685330485467,-0.0005998924672169156,-0.0033684755737469034,0.004949883515912596,-0.0018913735381137706,0.00020647351847964332,3.7527439700778265e-05,-0.0005950218949581816,0.0010778285130561248,0.00042242897209045227,-0.0026484632301119818,0.0036637604645992777,-0.004563889604312275,0.0044776533641234795,-0.00426856714202449,0.00263760830871302,-0.0011576945614396976,-0.000674614339460429,0.0005001891570095528,0.001643325487458087,-0.0032728206466245482,0.0036947153978790295,-0.003764326474876241,0.0036197793573009354,-0.00368533581167043,0.003952604067702252,-0.0037332764158046275,0.0023663418675680635,0.0007093130461195939,-0.0005628534654618968,-0.0008864615767461004,0.0011707201353366656,0.0005769378709216746,-0.0020472782813947647,0.0028741338922624593,-0.0025989075938390033,0.0007151717877777325,0.00013146310336777794,0.00011777125912571657,0.0007238508615432914,-0.0005420305029874145,-0.0007295894846249089,0.0011177060642769392,-0.002386019729991789,0.002197759843616146,-0.002628228222864397,0.002955357690197849,-0.0008393013726659924,-0.0008675633093754853,0.0004767107081160328,-0.0006313404463419679,0.0013257953257381216,-0.0017308539260309681,0.0018317209312951818,-0.0004718928827701016,3.781133381990098e-05,0.0013570858894030313,-0.002471643798424461,0.0010031616980139373,0.0009171901966220468,-0.0014502701701281755,0.0006331708045460051,-0.0021988862236041445,0.002745292449973272,-0.001760903166218894,0.0004620571312094861,-0.00036321639161031663,-9.376002295359911e-05,0.001736823004016376,-0.0027160695708360535,0.002428288907361062,-0.00026515230461580594,0.00030345291250495274,0.0007141756292872318,-0.0008964585810423429,0.000596497412238807,-0.0004268229613889375,0.0017579548063282862,-0.0022946920432109982,0.0015675895176866309,-0.0006211843171204622,-0.00041787285400790575,0.00012526408339401038,-0.0005982212063086435,0.00047891143452031756,-0.0007515504007721725,0.000829086079758355,-0.0009101120967151561,0.00046972058598624376,1.7881258840625122e-05,7.248677311919721e-05,0.00015837574100186977,-0.00041238575520017966,9.355734009422641e-05
        ],[
          6.220439484783125e-05,-0.0007008971890866134,0.0015962985651515327,-0.002087152857732616,0.0028471365354022365,-0.0036719373908411512,0.003779063075654107,-0.0035587077784402926,0.0023429891155916788,-0.0010167335647606884,4.19120248107141e-05,0.0014923653136934,-0.0021681564596447295,0.00010626809717427521,0.0017743908087190369,-0.0018408481113028757,0.002188896098689344,-0.0027795864189533587,0.0023071365343458883,-0.0003512032459645209,-0.0012871669110439132,0.0009324552023415034,-0.0015599325061591979,0.0026976581037193026,-0.0013154204465795627,0.0010023266086688354,-0.0015734959931296422,0.0009158261949292479,0.0004883856570133266,-0.000743083529950575,-0.0002090873749253236,0.00020753955895047582,-0.0001004576033682425,0.0006049847926516555,-0.0005161722396515717,-0.0012947015427503678,0.002529268322604361,-0.002567351350584196,0.0030892052778390133,-0.004041996894578306,0.003271198274900619,-0.0013098931270845576,0.000737981953225636,-0.000460218871468257,0.00028239677464422797,-0.0012240172938375454,0.0018738627946743164,-0.0029626105496902977,0.0032698270169825155,-0.002663569686305614,0.002164281332037832,-0.00027971410438201727,-0.0006569449846944436,0.00013672707493414538,5.460583951612252e-05,-0.00019296128032342263,0.0001411991779714239,-4.174999657415024e-05,0.0010532195457841273,-0.0013529601862542484,0.0006611900740260829,-0.00022451551723866314,-6.342931459600576e-05,-0.00020229299279400648,0.0007920210688999174,-0.0005546181272482603,-2.2098854310467764e-05,2.3146012088512413e-05,0.0005289207593135586,-0.0009141565511789906,-0.0003100162945594426,0.0009118266602666306,-0.0003429270647836366,-0.0005537996204589696,7.57491535139515e-05,3.052980150450302e-05,6.399216094416654e-05,0.000264566471052885,-0.0013174249555687537,0.0012047384577900527,-0.0009653173823398128,0.0011188535715492831,-0.0010854297748854463,0.0008747094544404241,-0.00022211049263512472,0.0007988410606761115,-0.0005242578582461965,-3.8173764993709725e-05,-0.00026660339052544946,0.0008731405311105805,-0.00033863458874956037,9.390876521978009e-06,0.0005680271489016606,0.00015805308444351296,-0.000474979308938632,0.00035193352248293064,-0.0006361218473377381,5.0732710367987904e-05,0.0003900685227158293,-0.00014667537355177868,0.0002420450564060636,0.0002853036448330695,-0.0012130704672887599,0.0009443905143608558,-0.0008892186726701529,0.0006956068632851149,-0.0007523424635917843,0.001306522617760424,-0.0009331251409703667,0.00032454922016328554,-0.00021941835597191067,-0.0001289681322109021,0.0003299823125461343,0.00031551795217735906,-0.0005212859624652878,0.0003291534264235445,-0.0001670666002006188,0.00016029308590715698,-0.0009101180973819668,0.001184120578307744,-0.0006015059457186705
        ],[
          -0.0004553164743329452,0.0017285229054616325,-0.0016690381995874415,0.000887677113322119,-0.00028884258735112356,0.0012257425346526574,-0.002286896732797125,0.0026245395097453106,-0.001993383792382883,0.0008528646481834601,-0.000514530047019221,2.120814317994879e-05,-0.00029364344593162117,0.00045282361190350506,0.0003166316480784914,-0.000275008977372454,-0.0014627633413392543,0.0025864015665222617,-0.0027382351758605677,0.0020225828607616098,-9.340063760558681e-05,-0.0003637149357444691,3.318474006412664e-05,0.00024173657097138757,-0.0011692864507361483,0.00040362806102627047,4.1237902634452817e-05,0.001384960054526277,-0.002450314924097474,0.0016169482203908514,-0.0003098522353452565,-0.00011749048743484036,0.0001543233536405869,-0.000385811024463667,-0.00015943536624812849,0.0014798979575837423,-0.0012291061296155897,0.0006465378016871637,-0.0017316199503030066,0.0025143184958605624,-0.0010740212721966208,-0.0006208670551227508,0.00024541664164816346,0.00010749654396456643,0.0006367110412429378,-0.0008288422675791773,7.340561522294065e-05,0.0003711127519267776,-0.0009394205551450652,0.0016129940702158257,-0.0009934952882030834,0.00017379423982839814,0.0008119798721746146,-0.0009632018278753901,0.0004183624432941846,-4.2403705411538095e-05,2.241696568124757e-05,-0.0010331924415560856,0.002253032578997491,-0.0004025756707766448,-0.0016341640587840822,0.0011655818299833587,-0.0012998394572963368,0.0014984033298934482,-0.0003781582183179921,-0.0001091732436035997,0.0008922522470926619,-0.0019654731422485347,0.002397975496992562,-0.0024574186622906558,0.0009715034605945125,0.0008973270687665721,-0.00033115284653083277,-1.1492917873154318e-05,0.00046458223807794435,-0.0014176235087901973,0.0005871001702089651,-0.0006926287834253635,0.0011423887485367684,-0.0008314249894153108,0.0005637275580173684,-0.0005787984576726135,-0.0004480353036733428,0.0016427279042189047,-0.0014477640292941407,-0.00035806267439085493,0.0008830995408670647,0.00014183510711074376,0.0001455845725849246,-0.0002503631149388813,-0.0002184631576529518,0.0007297928277954432,-0.0003199014463951197,-9.9253438613639e-05,-0.0006492607958717422,0.00046718205124574724,7.395692032250573e-05,-0.00023309156881816395,-2.7296374756145825e-05,2.2125817380775487e-05,-3.4847565204280256e-05,0.0003116413526479747,-0.0004768280614471307,4.518750482077408e-05,1.7476570064518804e-05,2.3260399662779208e-05,0.0008738335603979616,-0.0006714289892360767,0.00035928159939334,-0.00031856681808444323,7.902652188531557e-05,-0.00041808027160536616,0.00045622453067329163,-9.49789278195147e-05,-3.395238203470624e-06,0.00032377866263496105,-0.0007214371199678257,0.00041028469129146886,-2.946409333387523e-05,-1.161303543299741e-05,0.00024881734394313973
        ],[
          0.0005866846122997461,-0.0004982867054991631,9.195508041499184e-05,0.0003524314679021964,-0.0011895789278716512,0.0015531282472947688,-0.0014226326352790811,0.001632913526695803,-0.002331395102400851,0.0021504733761888656,-0.0007002213012153868,-0.0014051817533131394,0.0018643286920421824,-0.001383245036623116,0.0009627045743589926,-0.0004536901832133816,0.0002433270479362329,0.0004302550868578378,-0.0008360529561024441,0.002439360236186166,-0.002919702037210585,0.0010102154958698817,0.0014023565912761812,-0.0009400588393009279,0.0006337367100609503,-0.0014643408979075276,0.0009460968439742035,0.0001978479420035109,-0.0009380091021484252,-9.65072286096269e-05,-0.00122238093599316,0.0017920668306610696,-0.0005006902449124981,-0.0012513489870681904,0.0008626934717530996,0.000499310531530843,-0.0003017456495858148,8.981732242641788e-05,-0.0008702825554569651,0.001662206350508011,-0.0008670479196283692,0.0005692385362635818,0.00017454833699794697,-0.0007577308833137571,0.000920839259091262,-0.0013405044348716935,0.0012026439175086279,-0.0005694285026719773,0.00039400533562414936,-0.0005930499026658778,0.00012143564441000759,-8.019820601360556e-05,-0.000133584935592998,-2.4231059562909718e-05,0.000609032344701492,-0.0005215374299889636,0.0005707256835615696,-0.0009035343381740002,0.0015117809893569756,-0.0011641127369367565,0.001566456900794877,-0.0011616110743905422,0.0006008082361808054,-0.0005911362620924926,-2.7606558387766045e-06,-5.176162390144873e-05,0.0003085000548335298,-0.0003611473028233142,-0.0007483026128004763,0.0014214965654866726,-0.0014121714153438603,0.0001373061561696226,4.877111052600802e-05,0.0005928526654488259,-7.96049953211142e-05,-0.00021562579631623224,0.00027585704911798486,-0.000508555299521013,0.0006346556582243479,-0.00019732312462403256,-0.0005850586889840637,0.0010404630679912291,-0.00018726722857083378,-0.00016697182153463386,-0.00011802723480511257,0.0004338083961027972,-0.00045520400535710437,-0.00022315521548427197,0.0008797322897130394,-0.0006301946269322567,-0.00047582001223603343,0.0013836130204132185,-0.0022241342312831203,0.0018575626796314554,-0.0012735633541009345,0.0005759895033657786,0.00025423497500068337,-0.0006009111287949218,0.0006981447267750268,-0.0012462500944177973,0.0017314455375830456,-0.0006427839587878209,0.0007707045853144329,-0.001468366153930159,0.001081523658424996,0.00019524070934034965,0.00029432818440716657,-0.0013436471178633058,0.0015220234232288937,-0.0009474957435736883,0.0005592019745824239,-0.0008420870437454986,0.00015727019606609494,3.557369924567233e-05,0.00032939539576648524,-0.0001902555939204964,4.791694566826099e-05,-0.0007131608112519311,0.001192298028771091,-0.0011108969403825775,0.000609566526986953
        ],[
          -0.00015538126212827352,-0.00033114959734908966,0.00031639207632701283,0.0004631014308458803,-0.0012129078516949499,0.0012442661352132997,-0.00016117401841257706,-0.00037545633194525224,-0.0003531317986613866,0.0007548651290825055,-0.00030757196285394195,-0.00042936024646278437,0.0013826974252549307,-0.0008427422253674682,-0.0003920498932780542,0.0012887975910996635,-0.0015222920163076512,0.0007031310967061666,-0.00016396190182523668,0.0008720662036656585,-0.00048490713086709464,9.357398271021833e-06,0.00018162413679211065,-0.0005651926658635648,-0.00037546918753364467,0.0022181964638742363,-0.0031873822184082246,0.0034432387212371685,-0.0027312887553058857,0.0032565101281991637,-0.0036456672655543823,0.0014941890966664872,-0.0003057129591143709,0.000470376831726918,-0.0004287245352276037,0.0010492360171620446,-0.0023489524458470967,0.002828666978092642,-0.00207451841218715,0.0010178333147314242,-0.00182610347747892,0.0018237001045214585,4.093407306079988e-05,-0.0005815677527097121,0.0003151407202391654,-0.0008714480775776634,0.00041508710037554963,0.0005513099421057682,-0.0003844435281826347,-0.0006210285354543849,0.0014694587964157318,-0.001273105196605534,0.0008920638886858318,-0.0013791875152150412,0.0011663433347071442,0.00016808481565365463,4.4990012429135806e-05,-0.00041773738391626125,-0.00029178970620483136,0.0010239338541566112,-0.000732787892656156,-0.0004655385984267263,0.0005839050917601091,-6.576939441683971e-05,0.0006445512009092338,-0.0008605648405063324,-9.897979453014905e-05,-0.00035341441807290597,0.0009308550970918983,-0.0004906315240152392,0.0004215964915036535,-0.0006646838617179948,0.0005078186488552475,0.00010819325026931864,-0.001054126682769968,0.0009287255044178253,-0.00010184296112678709,0.0002453483152418112,-3.472850342652045e-05,-9.230893806588814e-05,-0.0005962723880752335,0.0010218958791527039,-0.00016217942858502699,-0.00015423030666039672,0.00023702250671660263,-0.00039426468572940215,0.0003443609097975586,-0.0004649111231431746,-0.0001810010550382518,0.00021769988378932126,-0.00022620756487001792,0.00043433994750161076,-0.00018388995800235064,-0.0006155041660497185,0.00042895163474772346,-0.0005122866930160341,0.00042741173734506255,-0.0004626777877765123,0.0007244531991174447,-2.817363346674373e-05,0.0003881273517605671,-0.00048495624743183363,0.0005804290172071805,-0.0008959085918296417,0.0008185841867650104,-0.000545290836048283,0.0006815297311744406,-0.000562132559841444,0.0002562584343885621,-0.000260144363490325,-0.0003547180516708312,0.0005364623833354239,-0.0004226702439139862,-0.0002888620969208888,0.0006082513320583823,8.535499804260965e-05,-0.00048698360982119687,0.00029661267198620445,8.795212024276938e-05,-2.8379209383075366e-05,-3.7886741658887946e-05
        ],[
          0.0003273556491602209,-0.0001427256654883335,-0.0002317463033166792,0.0002838026985448735,-0.0007363670190390277,0.0014025595810896662,-0.002064337467479406,0.0020144204342898114,-0.0017228370422521615,0.0009814942415078275,-0.0002528356879960892,0.00010734828249900005,-0.000605256968238382,0.0009179265504183115,-0.000560426322257035,-0.00020826453728803882,0.00016871678652167392,0.00015495073680064746,-0.0004861137860043027,-7.756706080218291e-05,0.0005526345665628561,-0.00011744825754109785,-4.831603174049789e-05,0.00047300026928372846,-0.0008180869176386838,0.0004742708053129302,0.0003302525253712366,-0.00048792019858983965,-9.333012035168779e-05,0.0010145029160362504,-0.0005274192194939329,0.0004045657208269172,-0.000571292401839819,0.00030566012460040565,-0.0008702214877666474,0.001409314896559548,-0.0007588832740904666,-0.0003052784191389119,0.0005913158638768583,0.00011338063025239774,-0.00044442230126141933,0.0003417113933823911,-0.0008006057234670907,0.0008868632326597264,-0.0006452345892473104,0.0016550732989218022,-0.002214753458202345,0.001620555821232576,-0.00048478585322163543,7.165914114295405e-05,-0.0008163968153986666,0.0010830006940500446,-0.0013041977266444365,0.0014546218247434325,-0.0007106819095867396,0.00045030114468737163,-0.0010148994671123311,0.0011988137056549364,-0.0009155232298579284,0.0004131067186863282,-5.072583350470682e-05,0.0005841059799186407,-0.0017167652319362839,0.002348998644524913,-0.0019371839722618304,0.00044028493245605246,-0.0006388695876620347,0.0013750518256033474,-0.0017201347968525864,0.0015655570955965823,-0.0012117425870625574,0.0011127858380243268,-0.0011574039629035577,0.0008912855459313352,-0.0007916893711847764,0.0003299748671850549,0.00046426584722780457,0.0008849181288942739,-0.0015705681249791985,0.0018863654410788567,-0.0015822004445058512,0.0006979241920161095,-0.00022913192664570509,-1.7938534103427613e-05,7.11681790120447e-05,9.851228086698877e-05,0.0005748798009502787,-0.0007404813531452859,-0.0006723661937691819,0.0010935127105992839,-0.0009701943548980057,0.0007670190989230198,-0.0002884310450600473,0.0013269447313286869,-0.0021321954807807936,0.002411515398169536,-0.002393190978916271,0.0017119627393510951,-0.0006801516823616172,0.0003019915776077478,-8.814878128521678e-05,-0.00019718376501545037,0.0009057661168036203,-0.001312770906199313,0.000500764528784314,0.0002758262864297079,-0.0013542049745322964,0.001948801572300895,-0.0022008576009847807,0.0008487460809227763,0.00012843110981812338,-0.0005967841637151451,0.0005920033473830371,-0.0008913678201081278,0.0009088359269061284,-0.00021548062576883485,-0.0007801979185778803,0.0014211325420771647,-0.0019298855649074985,0.002001595674491245,-0.0007745749782997182
        ],[
          -8.861919257908968e-05,-0.00014454995898501716,0.0004980417565569259,-0.0006309131377773974,0.00041763987297677857,0.00014211396901981505,-0.00043600989516403427,0.0008292890322445547,-0.0005565358214692333,0.00027339143013121667,-9.658687248569747e-06,0.00026897296479395233,-0.0002919381131733789,0.0002233286410355459,-6.796605277122753e-05,0.0001503441806839055,-7.158044319932264e-05,-3.842488835888863e-06,-1.8179495282353436e-05,0.00014556655430441462,-2.5213718108790806e-06,-0.00016961660437143054,7.088233008935296e-05,0.00013223963368058644,-0.00039275480775732147,0.0011140403208653067,-0.0014809051704731888,0.0005009370915934896,-0.0003950810329443298,0.000489345044363234,-0.0009644576166087278,0.0002816827666380847,-2.9555500865498935e-05,-0.00024136581724829367,0.00025515385908609495,-0.0003657139042102693,-0.00018370916575995502,0.00014832338211434246,0.0007323247657224675,-0.0007282961765277644,0.00045513807063776376,0.0005824066152516662,-0.0001113244797810841,5.178715854193411e-05,-7.662159967586346e-05,-7.63840453979342e-05,-0.00020927715339091185,0.000997237762949174,-0.0011767846415154035,0.00028534961639539724,0.0008295379448551472,-0.00033343498639702013,-0.0005585562874895651,0.0002565018938960068,-4.272109060181762e-05,0.00016989685863538773,-0.00033164743687837117,0.0007741086551930412,-0.0004337366212162144,-0.0006079452797483273,0.0006711623960334659,-0.001228486547378435,0.0010294264657190813,-0.0005772350432859119,0.0004654464143429432,-3.754828433474768e-05,-0.00014579825203821922,-0.0002153251526778449,0.0003971824816679653,-0.0008384261843668306,0.001597248952983299,-0.0008150165900094805,0.0007390021245142833,4.3427721248129325e-06,-0.0007369387567438511,-0.00016124694554695354,0.00025649585088007715,-0.00015151134780207187,0.0005683929466701321,-0.0005899990931057184,0.0008043170602489505,-0.0017573123314546801,0.002261730893825982,-0.002542430545727885,0.002024537402082964,-0.0004396397309264881,-8.191969327375759e-05,-9.23688939791739e-05,3.641893986729844e-05,-0.00040523001724492025,0.0001960682187438778,4.0781114518731454e-05,5.445690742006404e-05,0.00019070772116645124,0.00014108155413009027,-7.025989654628473e-05,-0.0008489932498978899,0.0011195948517277315,-0.0003341112474833773,0.00024234723248572204,6.0220036297069235e-05,-8.278011563048887e-05,6.792880594635314e-05,-0.00011322773248884088,0.0006294319243044175,-0.0015802505414805115,0.0007386642453950515,0.0010437022492861478,-0.0008358761941996626,0.00048205537301124896,-0.00040023788647894354,-0.0001737754910854719,0.0006887179328951415,-0.0007522409305940336,0.0008839462436181361,-0.0009453091976123762,0.001710318232761493,-0.0015883100318215132,0.00042347234823664204,0.00011262098291391076,-0.0003906080020489207
        ],[
          2.6983915295126213e-07,-0.00010783372787209755,-0.00012315436794675672,0.00010933104705186658,-4.966042847034252e-05,3.892471194991143e-05,-1.736681646431759e-05,9.463322522357265e-06,5.563958210910713e-05,3.305137869796804e-05,-2.487938002039558e-05,0.00020697525160483145,-0.00015895158384890765,0.00017509759906082084,-0.0004426696018639126,0.0004895816127740149,-0.00039783114332322955,0.00046864913534312713,-0.00038861721654125103,0.00011958838626233148,-2.752082646444165e-05,4.1872372347900866e-05,-0.0003164752504143369,0.00015847484589993736,-3.455977152842099e-05,7.592361696710098e-05,0.00015327330179978893,-0.00019968411672792452,6.140462120486634e-05,-6.258984697415926e-06,0.000139811468608822,-5.253928186840784e-05,7.097808211901924e-05,0.00019319801768546193,0.00028123654530041314,-0.00012533935935331655,-0.0001453073004929889,0.0006386408993265674,-0.0007148722826169907,0.0003687135898296501,-0.0002032991381594601,-7.749161627072787e-05,0.00018045104157725367,1.3098331419755804e-05,-0.0003141921014844333,0.00017887424384249034,-0.00019937518321019865,0.0002954634720817584,-0.0003428845275349618,0.0004961202686014493,6.292812215218102e-05,-0.00045877233399548023,-9.76444938616261e-06,4.181181547040225e-05,-5.387389881442162e-06,6.410772940661051e-05,-0.00015584319882486555,0.0002382993041861528,6.829070802503306e-05,7.770558083791679e-05,-0.0006014918003311581,0.0006892785009042501,0.00014496014153669856,-0.00028656299664431284,9.437738080593505e-05,-0.00011451567056623702,-0.00011027317856097257,0.00044570353821397207,-0.0007692786844863617,0.0007160772688667438,-0.0012771309635655065,0.0011322167239593284,-0.00037101043495586794,3.528506999017633e-05,3.13925152260891e-05,0.00020660812290329567,-8.79415065701411e-05,-6.887242679809794e-05,-0.00011670850742675348,0.0004796831215774719,-0.0004916623713489415,0.001048201917817737,-0.0010034695108758346,0.000668494900175079,-0.00031859917142379457,0.00032576685067813027,-0.00030453148116091344,7.674334247957659e-05,0.00010215028546103899,-0.0002969406069137856,-8.144366015776228e-05,-7.210819470863244e-05,0.00014014468032586685,-0.0001740495195294567,0.0004402141556474892,-8.583190074598623e-05,-0.0001369992720979124,4.42347830176687e-05,-0.00013022150603922422,7.551429199977727e-05,-0.00020832443959875602,4.9646809953805826e-05,2.2717916738176913e-05,0.0006580706411596637,-0.0007943894364715043,-0.00027278701520909443,6.293425364847782e-05,0.0004544203649878287,-0.0005840200233763887,0.000664720631201654,-0.0001308481751962319,0.00043703919309918265,-0.00026300527680237634,0.00010299987092129287,-0.001034726530439109,0.0011172901161927845,-9.663527221649704e-05,-0.00020811027544215266,0.0003554625836771491,3.4569905801931644e-05,-0.0003383008306545032
        ],[
          1.262299540800288e-05,0.00023507085290051626,0.0001781293950937693,-0.00010246697414737632,1.487446229378464e-05,-0.00021663501755403436,0.0001674869040714233,-0.0002624171875414555,0.0002373225229577447,0.00020816413206647955,-0.00015056867732457513,-3.497884670928533e-05,8.890820394747735e-05,0.00015154898267511624,-0.00046824123860367967,0.0006009587037044475,-0.0006435918588450495,0.0012069760275959657,-0.001007871896849269,0.0007182411302103786,-0.0006575168740774601,0.00020691207854964255,-5.350240405816928e-05,-1.940012473397243e-05,-6.544937582424193e-05,9.543385903827695e-05,-0.00017207873286954195,4.818340735686377e-05,1.2084055288061335e-05,-7.909883513997074e-05,0.00015685211709337565,-0.0003309127129746958,0.00022970813818223856,0.0002611191710543397,-0.000373865285689938,0.00044634555229442624,-0.0005339729189401954,0.0006704393207549661,-0.0006049932721632068,0.0002763439795099021,-0.0007338146568118958,0.0009213074445695718,-0.00019590429972152212,-1.904809086303305e-05,-9.946416665839418e-05,0.0002354774945452394,-1.1464108014863639e-05,5.145605108530793e-05,-6.362165244045564e-05,9.29973322401495e-05,-7.116869329099051e-05,0.00037029747343327035,-0.0006713101132384686,0.0003111422472440589,-4.807302569038996e-05,-0.00010397660421433003,0.00021571674680472344,-0.00011750469102100869,-0.00044391903176956016,0.0008234853536779607,5.694777167858378e-06,-0.0004970241278140913,0.00031959685042179387,-6.915659253699247e-05,0.0005272084144443828,-0.0004517033217067701,2.9255911753237746e-05,3.5949025862454936e-05,-0.00012191425537077388,0.0007859476015706773,-0.001636386163124448,0.001006372743271866,-0.0003856054383388763,0.0006013422965163578,-0.00041565712267634114,-0.0005235396353154703,0.00047291359701708,6.031144365099307e-05,-0.00025379741399964365,4.720780514706063e-05,-0.0004515430697845657,0.00046912502362356917,0.00016906925282413054,4.400769483041411e-05,-0.0004929705387366479,0.0003370412910962406,-0.00010476874989703844,0.00025234471748686316,-6.877523164600455e-05,0.00012386252233705444,0.00015740127169360657,-3.4476267427564766e-05,0.0003029980149743122,-0.000813944683862533,0.0003951228277015023,0.0006382293761028335,-0.00044189207521094787,-3.6619414454541754e-05,6.643852775163606e-05,0.00011864337188485785,-0.00019760522963915145,3.356535173640318e-05,-0.00020323407184789227,0.00016207946779178695,-3.26055426384253e-05,3.403197421299187e-05,-0.0002144558152145648,0.0002666912345365008,-9.500786127070171e-05,-0.00012092467126295636,-9.436610193643002e-05,0.00018420053796409236,-8.3460056970526e-05,-0.00020681517932279875,0.0004330145135694047,-0.0001745022562906831,-0.0003301301328535039,8.856419552576156e-05,0.0006320070959027896,-0.000627361729748796,0.00029196197419111003
        ],[
          -3.997844435327247e-05,-0.0003949983066547369,0.0006745407729072533,-0.0005741752017683621,0.0009543553550967476,-0.0005990074093948916,-0.0006122976359911186,0.0011450281260921152,-0.0008427106625403108,0.0005529239489264481,0.00016012263258786963,-0.00019089144223703725,-0.00010090143884751435,0.0008347859970952998,-0.0007778844782165978,-0.0011796998867944636,0.0028159667871849176,-0.002196804602549618,0.0018475419637531132,-0.0007100083705324084,0.0003795063115153152,-0.00036708356148200394,0.00018767535824733284,-6.623648336492871e-05,-2.4831227783919663e-05,7.07153788188919e-05,0.0007694579249276079,-0.0018609296218597415,0.0013452990931862585,-0.0003739214904951854,-0.0012590830207530462,0.0005652572403560124,0.00014932808369420847,-0.0003261707741958192,0.0004550736455559562,-3.8720519152907196e-05,-5.424408837609307e-05,0.00038381757870584177,-0.0009962116933157766,0.0027854432966676473,-0.00273109265226891,0.0015512008530796928,3.057403640299716e-05,-0.0006161298017104827,-1.7332838587152954e-05,0.00026544275853347676,-0.0006635124605010451,0.0008785962634283023,0.00018595001344789974,-0.0011033844017665634,-0.000282694552576207,0.0010467142331863771,-0.0005480457496140623,0.0002345959819667065,8.985189246997483e-05,-0.00041963564531216635,0.0004880379357021722,0.00010120258061862425,-0.00022871999472513782,-0.0005812073791551797,0.0008398528171916012,-0.0002673535723151099,-2.9551625781540358e-05,0.00034317231438749096,3.4721147457450474e-06,-0.0004422683965443694,-6.513735847075292e-05,0.00010342868883043976,-0.00030574186175924556,-0.00029055670961052743,-0.0005561482383589361,0.001660580448552565,-0.002013895261771155,0.0008252923953165278,-0.00021905023550226194,0.0004925976712328375,0.00016575022241399617,-4.468549904802083e-05,-0.00011372229076493656,-4.096474159855784e-05,0.0008362959244284721,-0.00021534011922356988,0.0004634297388948355,-0.00033427725893122456,0.00042455569049011654,-0.0005180745843320622,-5.618401414320823e-05,0.000210031897046839,-0.00015865039604666398,0.0003152922303876621,-0.0005423415988181218,1.8076962621578485e-05,2.226421757686725e-05,1.018631438943346e-05,0.00032603460270394513,-0.0006770249690572286,0.00029707256012639904,-0.0003846555106117172,-3.700812521354596e-05,1.2167528703890124e-05,-0.00015889677498589355,-4.1390388319653e-05,0.0004424028805918717,-0.0005226545256279483,0.00047206031637567203,1.1576240725494347e-05,0.0001030412255691622,0.00027515322924770436,-3.631791942975901e-05,-0.00016628334987607574,8.548318697625817e-05,-1.4948109640307988e-05,6.244161121878727e-05,0.000302059200616725,-0.0003542395596177559,1.2452105577426612e-05,9.599944689446006e-05,-0.00015466307206042293,9.450779072890745e-05,0.00022581388259678868,3.16614821472157e-05
        ],[
          0.0008004907685617976,-0.0020540450253245302,0.001909293752625975,-0.0012245897605148415,0.0002973105757453334,0.0006053595575149033,-0.0014079061565417795,0.0017725140213546444,-0.0011758715949687383,-0.0001309070651495284,0.000548723710955862,-0.0017162004581774333,0.0035354485555799346,-0.0025628240744682966,0.001506498025862796,-0.0010303674121608388,-0.00012564371631553585,0.0013369762153411053,-0.0016575305947260555,0.0013431855288965878,-1.3644275776641208e-05,-0.0005000167791426765,0.0011964469538585545,-0.00231052951055736,0.0021837478591131324,-0.0015201607229322765,0.002171983677896191,-0.002413333252522024,0.0008653150240746719,0.000936990485968807,-0.00027814629864710493,-0.0014779917903912521,0.0012315261947582203,-0.0003848469450998445,0.0004417401205325346,-0.00023443623522780563,-0.0005505334697148474,-0.00013467492128984085,0.001176903090087299,-0.0005666483339813351,0.0004221158191003432,-0.001906254920973603,0.0029466843104861084,-0.0014246899565190855,0.0004702980731570904,-0.0010062405229725258,0.0012866170362658747,-0.0009269270228624882,0.0020792084333549716,-0.002699027992002753,0.0016571576617340376,-0.0005306309301304228,0.000873171046807819,-0.0020160134276295573,0.0011143716300427177,0.00047695556033548866,-0.0005521184873234986,-0.0010313310638159195,0.0016891301922180497,-0.0015529282165841025,0.00140136879342841,-0.001230321462429251,0.0006706580175753435,0.00016671982240475515,-0.00020629536833482879,0.00040281333723920804,-0.0006717500263255284,0.0015197147243578993,-0.0007895498424444926,0.0004930807332393805,-0.001274176686109343,0.0004966817317079565,-0.00018233479124286255,0.0007897598739458291,-0.001892434191314924,0.0020991677781840544,-0.0012171337979491473,0.0011632616097829594,-0.0028815889166265603,0.0030254064266712374,-0.002050277707132833,0.00036883738313697734,0.001127335096800921,-0.0014046072963965648,6.159868355469072e-05,0.0013627142493557675,-0.0020815771765810695,0.000888886764125045,-0.0003392714849389934,0.000847386053386331,-0.0014461901144500714,0.001416924890995117,0.0006903397706356476,-0.0020876668671253595,0.002497911898384012,-0.0011688233397237294,3.714502077556322e-05,0.0017199205644435865,-0.0008466045161155627,0.0010691460126503907,-0.0022102862559794816,0.003771785665628579,-0.004807945193061766,0.003591792997033534,-0.0008977252791549809,-0.0010182710469565223,0.0002491968124638196,0.000570540483880669,-0.0017527356194256246,0.0010290628326297087,-0.00038466195854903085,0.0005779326528964758,-0.0003931650239356534,0.0002479066921097858,-0.00013177768180026243,-0.0012139995684076709,0.002153529751023708,-0.0007850283073175491,-0.001017210345444084,0.0019780611365432283,-0.0010595280293950798
        ],[
          0.0001620881120708087,-0.0007751255869673998,0.0014379781823158876,-0.0017113137000599604,0.0015526637941975958,-0.0015733360371111074,0.0012335118282548602,-0.0007515276523817858,0.0003826136230695061,-0.0007201380717817771,0.00038975956521254684,-0.00010748302041908506,0.0002124751971498695,-0.0008360675947334077,0.0019015762844696166,-0.002368515431101191,0.001989288225509745,-0.0012991463058149577,0.00018751432100576337,0.0009344002576972682,-0.00016744353435600018,-0.00044649703447649514,-0.0005870666253838348,0.0015069989153697755,-0.0011086043008317718,0.0006734328161166481,-0.0006390230719978372,-0.00047260693502036016,0.0013495457233236169,-0.0010830591728245437,0.0007104802715591912,-0.0011121415280186502,0.0008753293538262576,0.00028088425491942445,-0.001375389437201338,0.0016467175828799568,-0.0015986478321100284,0.002120300511086602,-0.0020075710729249435,0.0023550248056898315,-0.003103642046816367,0.0021871286107563656,5.518487911686937e-05,-0.0002536712675955677,-0.0004157591350076942,0.0015498562361197753,-0.001650253380706762,0.0012042219582711969,-0.0020715785418614525,0.002924898092635561,-0.00393416748409367,0.004537135494309792,-0.002635313191692641,0.0004448775341389863,9.924072797239808e-05,0.0008353874091017871,-0.002455215422253604,0.002472301137864598,-0.0018893316007074154,0.0028775609579224544,-0.003727437853174264,0.00370912954008374,-0.004040471678461173,0.0016608040180394537,0.00019428880984945218,-0.0004165144665286419,-0.0015809770287994324,0.0037929152411085992,-0.003410750385723804,0.0019090933138980123,-0.0012026093168066576,0.0014221980769982823,-0.0020242831488020627,0.0031810749536352323,-0.0017574750937023736,5.7288620164942794e-05,0.0005621124625869445,0.0013048823050401948,-0.0030224260928393837,0.0023456180985155783,-0.001062424165863704,0.0006123961105829051,-0.0006653466327427165,0.001474984356142725,-0.0021520621725474864,0.0007604867460533904,3.8504839285982695e-05,-0.00023254922960627006,-0.00015971532505568153,0.0002044853992813206,0.00023659288039466764,-0.0007269125161153273,-0.00028113023395645587,0.0022013321878874975,-0.0032062298383024324,0.0013516719858131798,0.0005845138569464253,-0.00011608860748422989,-0.0001556950262336515,0.0011660406670947754,-0.0019111282021212483,0.0015789189406303777,3.1218531762106094e-05,0.00024991194529058736,-0.0019247190404610842,0.00226269905885898,-6.0379381230296625e-05,-0.0005342428765408164,-0.0001966641043252837,0.0005059992433268101,-0.0008657700239775717,0.0009744692219323114,-0.0007654767876326685,-0.0008147467225233795,0.0007253753165417515,0.0003851407658551631,0.0001963820538598282,-0.0018464111974003106,0.0026219003447617434,-0.0019315679401021024,0.00047588386789614023
        ],[
          -0.00046725559055188753,0.0006421212623121583,-0.0012646057710131425,0.0013592044440901194,-0.0012800864443403193,0.0011490963693499396,9.391705826169777e-05,-0.0007880695670821774,0.0012555632434124767,-0.0010641931940505536,0.0005341430488522029,-0.0008469818307945783,0.0023368025636099953,-0.0020237471047727445,0.0011409605767122065,-9.231364490245344e-05,-0.00040727475708947315,-0.0006366337090555437,0.000525919087386043,-0.0004106820606355752,0.0005618213466735759,-0.00048249307714019036,0.0009902936338365147,-0.0021052293465044013,0.0010545399780655146,0.000751218459974724,-0.0021207936285665167,0.001809076974836386,-0.000364743840725809,-0.0008543075569409572,0.0007354814516036605,-0.00025488740608162175,0.00018738890205201037,-0.0011009903129256078,0.0017048637051053197,-0.0006476494841773635,-0.0006712798647800104,0.001529334472051278,-0.0013161860195395293,-0.00027855027781910243,0.0017214600634672611,-0.001332867289593499,5.963312330981805e-05,0.00011184854276404465,0.0008177324079196771,-0.001037848869923538,0.00011815014172048867,0.00047287833621574755,-0.00046413774858778073,0.0002441732096783325,0.0009655698359400505,-0.0019377127449990298,0.001125265634621073,0.0005287385633319087,-0.00028568425768774443,9.064338866534476e-06,-0.0003182665602685544,0.0009445002330584621,-0.0011273931071693645,0.001625605366060591,-0.0012917804798322394,-0.0007033311247361361,0.0013462315716064697,-0.0005379213681687665,-0.000587588081175694,0.00025632812315347754,-0.0008534232757368666,0.001398318611477849,-0.0008099406830969322,0.0005251500243325558,-0.0007979494237618072,0.0007477219613499983,0.00037225864090611473,-0.0009810192206558637,-0.00019887475924055013,0.0008899868411514076,-0.0006612110304396008,0.0005920171466127886,-0.000869978013801324,0.0004833739793586424,-0.0001262778312811309,0.0006245683333456903,-0.0014364819911527908,0.0008370757143484572,0.00035311481890087687,7.763217193413902e-06,-0.00040353143510680925,0.00031341269453370496,-0.0009445179686927679,0.001505611429007494,-0.0018563388023799699,0.001982266653014767,-0.0019464524004993988,0.0017818437921196628,-0.00019960005247618494,-0.0006261399361950682,0.0007803297920301766,-0.0005651592208527347,0.0002387268032659341,0.000480907485177276,-0.0010571706213856598,0.0017365741312774965,-0.001902700297331591,0.001428129195589537,-0.001074617956977408,3.3239632753303975e-05,4.837417555475813e-05,-0.00013728166759671744,7.939637278489326e-05,-3.423892216491693e-05,-0.0005659197614943051,0.0014819809189989537,-0.0017165338983695707,0.0016546075879105284,-0.0013247427352965438,0.001391973645118848,-0.000974546407311621,0.00032597410224978344,0.000974716726183775,-0.0013923446659906637,0.000650542726049736
        ],[
          0.0010182170305720866,-0.0015299329878686076,0.0012399507818149653,-0.0011251080554123601,0.0004012263207186263,0.0008812453381529181,-0.001550623193496187,0.0015221360668016444,-0.0013440936441357978,0.000998510113518274,-0.00041211912344588444,5.192915857662496e-05,-0.0003656082870422805,-0.0001931905663402067,0.0006009926977524477,0.0005282121813114694,-0.0015247696949781259,0.0023107257538382067,-0.0022600170245562767,0.0023518391130308586,-0.0019680818473095454,0.0007585327777820602,-0.0005571010279907208,3.19211681272984e-05,0.002730445990335494,-0.0037709393789299404,0.0016775684470136465,0.00015993377201686029,-0.0007506087767573553,0.0009714891146916883,-0.0007692288147427024,0.00024518987100356077,-9.610549706710707e-05,-0.0002630858317427369,0.0010299499085123006,-0.0013367541668291138,-0.0002886646341410566,0.0022959659965968325,-0.0030565508724827014,0.002252235486046285,-0.0008752149761688784,-0.0004860806903681427,0.0017285129664470055,-0.0010615394670137725,-3.2866129920298796e-05,-0.0006292419125306118,0.000901454614850296,0.00040674496669920734,-0.001638005289144092,0.001961977071077749,-0.0012241349941030846,9.743837613092159e-05,0.000553153475155054,-0.0009780361198356013,0.0008141481787736042,-0.00026282378141720495,0.0017230260017473418,-0.0034306915252645927,0.0033516869463009157,-0.001820172031139388,0.00025321410246444305,-0.000614862737590479,0.001869662787092559,-0.002730362325988089,0.0022867317162423803,-0.0011583264004313594,0.001197773202715234,-0.002748994912895321,0.003686373936868887,-0.002850901932272867,0.00037015152061793417,0.0015688042992478245,-0.002267284698773839,0.0037118995483395065,-0.0040904756223692045,0.002151892603092118,-0.000174972532030557,-0.0010176276442998107,0.0016496044875405269,-0.0020504114247434065,0.0013811453271235308,-0.0003153160004836482,-0.0003687714899282138,0.0013544299276665906,-0.00409624697851247,0.004819024526929792,-0.0026543060892657037,0.0007551609248143765,0.0010277856544814849,-0.0018009226099687174,0.003314996356980271,-0.0032712931183374277,0.0015497972781389241,-0.0009738028681140201,0.0012040396955397248,0.0002603801317516449,-0.0012084134904463764,0.001159246306482913,-0.000659263670863601,-0.001556490292565851,0.0028973998392102115,-0.002717080689826412,-3.6873593369057215e-05,0.0023698379493639725,-0.0020884545839201067,0.0008725725253035934,-0.0006771957799518976,0.001181206109654086,-0.001026434898583094,0.0007381645750995499,0.0013380855956288237,-0.003704947068132893,0.004048535893150009,-0.002084479559894768,0.0008342443705439666,-0.00015518612658431841,-0.0010324072727169705,0.002208005878879796,-0.002556478728320889,0.0019609946805791536,-0.0008897006099962031
        ],[
